<?xml version="1.0"?>
<opencv_storage>
<opencv_ml_svm>
  <format>3</format>
  <svmType>C_SVC</svmType>
  <kernel>
    <type>RBF</type>
    <gamma>5.0625000000000009e-01</gamma></kernel>
  <C>6.2500000000000000e+01</C>
  <term_criteria><epsilon>1.1920928955078125e-07</epsilon>
    <iterations>1000</iterations></term_criteria>
  <var_count>50</var_count>
  <class_count>20</class_count>
  <class_labels type_id="opencv-matrix">
    <rows>20</rows>
    <cols>1</cols>
    <dt>i</dt>
    <data>
      0 1 2 3 4 5 6 7 8 9 10 11 12 13 14 15 16 17 18 19</data></class_labels>
  <sv_total>568</sv_total>
  <support_vectors>
    <_>
      2.04081628e-02 7.65306130e-03 3.57142873e-02 3.06122452e-02 0.
      5.10204071e-03 6.12244904e-02 3.31632644e-02 3.57142873e-02
      2.04081628e-02 2.55102050e-02 5.10204071e-03 3.57142873e-02
      2.55102050e-02 2.04081628e-02 7.65306130e-03 1.27551025e-02
      3.57142873e-02 7.65306130e-03 2.55102050e-02 1.78571437e-02
      2.29591839e-02 5.10204071e-03 1.78571437e-02 1.02040814e-02
      2.55102050e-02 2.04081628e-02 4.84693870e-02 5.10204071e-03
      1.27551025e-02 5.10204099e-02 3.57142873e-02 1.27551025e-02
      1.78571437e-02 2.55102036e-03 1.02040814e-02 2.55102036e-03
      3.06122452e-02 2.04081628e-02 1.53061226e-02 0. 2.55102050e-02
      7.65306130e-03 2.55102036e-03 3.31632644e-02 1.27551025e-02
      2.80612241e-02 5.10204071e-03 3.31632644e-02 1.53061226e-02</_>
    <_>
      2.34192032e-02 2.34192028e-03 2.10772827e-02 2.81030443e-02
      1.40515221e-02 4.68384055e-03 1.17096016e-02 3.51288058e-02
      1.87353622e-02 1.63934417e-02 9.36768111e-03 2.81030443e-02
      9.36768111e-03 3.51288058e-02 4.68384065e-02 1.63934417e-02
      1.40515221e-02 3.04449648e-02 1.63934417e-02 7.02576106e-03
      1.87353622e-02 2.10772827e-02 5.15222475e-02 1.17096016e-02 0.
      2.57611237e-02 3.51288058e-02 6.55737668e-02 1.87353622e-02
      2.57611237e-02 1.87353622e-02 2.10772827e-02 3.51288058e-02
      1.63934417e-02 7.02576106e-03 9.36768111e-03 1.63934417e-02
      4.44964878e-02 7.02576106e-03 2.10772827e-02 7.02576106e-03
      2.34192032e-02 3.04449648e-02 7.02576106e-03 1.63934417e-02
      2.81030443e-02 0. 4.68384055e-03 1.40515221e-02 9.36768111e-03</_>
    <_>
      1.39534883e-02 9.30232555e-03 9.30232555e-03 1.62790697e-02
      4.65116277e-03 2.32558139e-03 4.18604650e-02 2.55813953e-02
      1.39534883e-02 2.79069766e-02 2.09302325e-02 1.86046511e-02
      3.95348854e-02 2.32558139e-02 5.58139533e-02 1.62790697e-02
      1.62790697e-02 1.39534883e-02 9.30232555e-03 2.09302325e-02
      2.32558139e-02 1.62790697e-02 1.86046511e-02 1.62790697e-02
      1.16279069e-02 1.39534883e-02 9.30232555e-03 5.34883738e-02
      9.30232555e-03 4.65116277e-03 2.32558139e-02 3.95348854e-02
      2.32558139e-02 1.16279069e-02 1.16279069e-02 4.65116277e-03
      3.25581394e-02 2.32558139e-02 2.79069766e-02 2.09302325e-02
      2.32558139e-03 1.86046511e-02 1.16279069e-02 1.39534883e-02
      2.32558139e-02 1.39534883e-02 2.55813953e-02 6.27906993e-02
      1.62790697e-02 1.62790697e-02</_>
    <_>
      0. 2.81329919e-02 2.55754474e-03 2.81329919e-02 1.53452689e-02
      3.58056277e-02 0. 7.67263444e-03 1.02301789e-02 1.53452689e-02
      3.58056277e-02 1.79028139e-02 2.30179019e-02 2.81329919e-02
      5.11508947e-03 5.11508947e-03 7.16112554e-02 1.02301789e-02
      3.32480818e-02 1.02301789e-02 1.02301789e-02 5.11508947e-03
      3.58056277e-02 2.81329919e-02 1.27877239e-02 5.62659837e-02 0. 0.
      2.30179019e-02 5.11508947e-03 3.32480818e-02 1.53452689e-02
      1.79028139e-02 1.79028139e-02 1.27877239e-02 2.55754478e-02
      6.13810755e-02 0. 4.34782617e-02 3.32480818e-02 2.55754474e-03
      2.81329919e-02 1.27877239e-02 4.60358039e-02 1.53452689e-02
      1.27877239e-02 7.67263444e-03 2.30179019e-02 2.55754474e-03
      2.81329919e-02</_>
    <_>
      2.47191004e-02 4.49438207e-03 1.34831462e-02 4.04494368e-02
      8.98876414e-03 8.98876414e-03 3.37078646e-02 2.24719103e-02
      1.79775283e-02 1.57303363e-02 6.74157310e-03 3.14606726e-02
      3.82022485e-02 6.51685372e-02 2.47191004e-02 2.24719103e-03
      3.14606726e-02 1.12359552e-02 4.94382009e-02 2.69662924e-02
      4.49438207e-03 3.59550565e-02 1.79775283e-02 6.74157310e-03
      1.34831462e-02 2.47191004e-02 2.47191004e-02 1.12359552e-02
      1.79775283e-02 2.02247184e-02 1.12359552e-02 2.69662924e-02
      1.79775283e-02 2.02247184e-02 2.24719103e-03 6.74157310e-03
      2.02247184e-02 2.69662924e-02 1.12359552e-02 1.34831462e-02
      2.24719103e-03 2.02247184e-02 4.26966287e-02 1.34831462e-02
      1.79775283e-02 3.14606726e-02 1.34831462e-02 2.24719103e-03
      2.92134825e-02 1.34831462e-02</_>
    <_>
      2.39808159e-03 1.43884895e-02 2.39808150e-02 9.59232636e-03 0.
      4.31654677e-02 0. 4.79616318e-03 3.83693054e-02 1.91846527e-02
      1.19904075e-02 3.11750602e-02 1.91846527e-02 9.59232636e-03
      1.19904075e-02 2.39808150e-02 5.75539581e-02 1.43884895e-02
      2.63788961e-02 0. 3.11750602e-02 1.19904075e-02 3.35731432e-02
      5.75539581e-02 3.11750602e-02 2.15827338e-02 1.67865716e-02 0.
      2.39808159e-03 1.43884895e-02 9.59232636e-03 2.63788961e-02
      2.63788961e-02 1.43884895e-02 4.79616299e-02 2.15827338e-02
      1.67865716e-02 0. 1.19904075e-02 1.43884895e-02 7.19424477e-03
      4.31654677e-02 7.19424477e-03 2.15827338e-02 1.67865716e-02
      5.03597111e-02 2.39808159e-03 7.43405297e-02 0. 4.79616318e-03</_>
    <_>
      4.83091781e-03 2.89855078e-02 1.20772943e-02 1.93236712e-02 0.
      4.83091772e-02 1.20772943e-02 2.41545890e-03 2.65700482e-02
      1.69082116e-02 1.69082116e-02 2.41545886e-02 1.44927539e-02
      7.24637695e-03 4.83091781e-03 4.83091781e-03 2.17391308e-02
      1.20772943e-02 1.44927539e-02 0. 2.41545886e-02 3.38164233e-02
      1.93236712e-02 2.17391308e-02 2.65700482e-02 2.89855078e-02
      1.20772943e-02 2.41545890e-03 7.24637695e-03 1.20772943e-02
      7.24637695e-03 2.65700482e-02 4.58937213e-02 3.62318829e-02
      7.00483099e-02 4.83091772e-02 3.14009674e-02 9.66183562e-03
      2.65700482e-02 9.66183562e-03 1.69082116e-02 1.20772943e-02
      4.83091781e-03 1.44927539e-02 3.38164233e-02 5.31400964e-02
      2.41545890e-03 5.07246368e-02 4.83091781e-03 1.44927539e-02</_>
    <_>
      3.32326293e-02 1.20845921e-02 1.20845921e-02 3.92749235e-02
      2.71903332e-02 1.81268882e-02 6.04229607e-03 3.62537764e-02
      6.04229607e-03 9.06344410e-03 1.20845921e-02 2.71903332e-02
      3.02114803e-02 2.11480372e-02 3.92749235e-02 1.20845921e-02
      5.74018136e-02 1.20845921e-02 1.81268882e-02 3.02114803e-03
      1.51057402e-02 6.04229607e-03 2.71903332e-02 2.41691843e-02
      1.81268882e-02 1.81268882e-02 3.92749235e-02 2.11480372e-02
      1.51057402e-02 3.92749235e-02 6.04229607e-03 3.02114803e-03
      3.32326293e-02 0. 9.06344410e-03 2.41691843e-02 6.64652586e-02
      2.41691843e-02 0. 1.20845921e-02 3.02114803e-03 2.11480372e-02
      2.11480372e-02 3.02114803e-02 3.32326293e-02 1.81268882e-02
      9.06344410e-03 9.06344410e-03 6.04229607e-03 1.51057402e-02</_>
    <_>
      2.40963846e-02 4.33734953e-02 3.13253030e-02 3.85542177e-02
      2.89156623e-02 9.63855442e-03 1.20481923e-02 2.16867477e-02
      2.40963846e-02 1.44578312e-02 2.65060235e-02 1.92771088e-02
      4.09638546e-02 7.46987984e-02 2.40963846e-02 4.81927721e-03
      1.92771088e-02 4.81927721e-03 1.20481923e-02 4.81927721e-03
      1.92771088e-02 1.92771088e-02 3.61445770e-02 4.81927721e-03
      7.22891558e-03 1.68674700e-02 4.81927721e-03 1.68674700e-02
      2.65060235e-02 2.16867477e-02 0. 1.20481923e-02 2.40963846e-02
      9.63855442e-03 2.65060235e-02 1.20481923e-02 2.40963846e-02
      3.37349400e-02 2.40963846e-02 7.22891558e-03 4.81927721e-03
      4.81927693e-02 1.44578312e-02 3.61445770e-02 1.92771088e-02
      9.63855442e-03 1.68674700e-02 9.63855442e-03 1.20481923e-02
      2.40963860e-03</_>
    <_>
      2.35849060e-03 3.30188684e-02 1.88679248e-02 2.12264154e-02
      1.88679248e-02 3.77358496e-02 2.35849060e-03 1.88679248e-02
      1.41509436e-02 2.12264154e-02 3.77358496e-02 2.83018872e-02
      2.12264154e-02 3.30188684e-02 9.43396240e-03 1.65094342e-02
      7.78301880e-02 7.07547180e-03 4.71698120e-03 1.41509436e-02
      9.43396240e-03 1.41509436e-02 1.88679248e-02 2.83018872e-02
      1.65094342e-02 2.59433966e-02 2.35849060e-02 7.07547180e-03
      4.95283008e-02 1.65094342e-02 1.65094342e-02 1.41509436e-02
      3.06603778e-02 1.65094342e-02 2.83018872e-02 1.17924530e-02
      3.30188684e-02 2.35849060e-03 4.24528308e-02 1.65094342e-02
      4.71698120e-03 3.06603778e-02 0. 1.41509436e-02 3.06603778e-02
      1.65094342e-02 7.07547180e-03 1.41509436e-02 9.43396240e-03
      1.17924530e-02</_>
    <_>
      1.81818176e-02 3.03030293e-03 2.12121215e-02 1.81818176e-02
      6.06060587e-03 1.81818176e-02 1.51515156e-02 2.72727273e-02
      1.21212117e-02 3.03030293e-03 2.12121215e-02 1.21212117e-02
      1.21212117e-02 2.72727273e-02 3.93939391e-02 2.42424235e-02
      6.06060587e-03 7.27272704e-02 3.03030312e-02 6.06060587e-03 0.
      1.81818176e-02 0. 1.21212117e-02 3.03030293e-03 1.51515156e-02
      1.21212117e-02 6.36363626e-02 9.09090880e-03 2.72727273e-02
      6.06060587e-03 2.72727273e-02 6.06060587e-03 1.81818176e-02
      3.03030293e-03 2.12121215e-02 6.06060587e-03 6.36363626e-02
      6.06060587e-03 3.63636352e-02 9.09090880e-03 2.12121215e-02
      3.33333351e-02 6.06060587e-03 1.21212117e-02 7.27272704e-02
      1.81818176e-02 1.21212117e-02 5.15151508e-02 1.51515156e-02</_>
    <_>
      2.51889159e-03 9.06801000e-02 7.55667500e-03 2.26700250e-02
      1.51133500e-02 1.51133500e-02 3.02267000e-02 2.26700250e-02
      7.55667500e-03 6.29722923e-02 1.25944586e-02 2.77078077e-02
      7.55667500e-03 5.54156154e-02 5.03778318e-03 3.77833769e-02
      4.78589423e-02 5.03778318e-03 1.51133500e-02 5.03778318e-03
      7.55667500e-03 1.25944586e-02 1.25944586e-02 3.27455923e-02
      1.25944586e-02 5.54156154e-02 1.25944586e-02 5.03778318e-03
      1.51133500e-02 1.51133500e-02 2.51889159e-03 2.77078077e-02
      6.04534000e-02 1.00755664e-02 1.25944586e-02 7.55667500e-03
      3.02267000e-02 2.51889159e-03 3.27455923e-02 1.25944586e-02
      7.55667500e-03 1.00755664e-02 2.51889159e-03 1.25944586e-02
      1.51133500e-02 1.25944586e-02 1.25944586e-02 3.27455923e-02
      7.55667500e-03 1.00755664e-02</_>
    <_>
      3.35731432e-02 3.59712243e-02 3.11750602e-02 4.07673866e-02
      2.39808159e-03 9.59232636e-03 1.91846527e-02 2.87769791e-02
      2.15827338e-02 7.19424477e-03 3.11750602e-02 2.15827338e-02
      2.63788961e-02 6.71462864e-02 1.91846527e-02 2.15827338e-02
      1.19904075e-02 7.19424477e-03 2.63788961e-02 2.39808159e-03
      2.87769791e-02 1.91846527e-02 9.59232636e-03 1.19904075e-02
      4.79616318e-03 2.63788961e-02 1.91846527e-02 1.43884895e-02
      9.59232636e-03 2.87769791e-02 4.79616318e-03 2.15827338e-02
      1.67865716e-02 1.67865716e-02 1.67865716e-02 1.19904075e-02
      2.15827338e-02 1.91846527e-02 3.11750602e-02 4.79616318e-03
      7.19424477e-03 3.83693054e-02 1.91846527e-02 4.79616318e-03
      2.39808150e-02 4.31654677e-02 1.91846527e-02 7.19424477e-03
      2.63788961e-02 7.19424477e-03</_>
    <_>
      3.58744413e-02 6.72645727e-03 8.96861032e-03 2.24215239e-02
      2.46636774e-02 1.79372206e-02 2.46636774e-02 2.46636774e-02
      1.56950671e-02 2.01793723e-02 1.12107620e-02 6.72645727e-03
      4.48430516e-03 2.24215239e-02 2.24215239e-02 8.96861032e-03
      4.93273549e-02 2.91479826e-02 8.96861032e-03 4.70852032e-02
      6.72645727e-03 2.69058291e-02 2.01793723e-02 1.79372206e-02
      8.96861032e-03 1.56950671e-02 3.13901342e-02 3.81165929e-02
      2.24215239e-02 2.91479826e-02 1.56950671e-02 1.79372206e-02
      1.79372206e-02 8.96861032e-03 1.34529145e-02 1.34529145e-02
      1.34529145e-02 4.26008962e-02 8.96861032e-03 2.01793723e-02 0.
      2.24215239e-02 4.26008962e-02 1.56950671e-02 8.96861032e-03
      3.36322859e-02 0. 2.24215239e-02 3.13901342e-02 2.01793723e-02</_>
    <_>
      4.51612920e-02 6.45161280e-03 6.45161280e-03 1.93548389e-02
      2.36559138e-02 1.29032256e-02 1.93548389e-02 4.30107526e-02
      1.50537631e-02 1.29032256e-02 2.79569887e-02 4.30107536e-03
      1.93548389e-02 4.08602133e-02 6.66666701e-02 2.36559138e-02
      1.72043014e-02 2.58064512e-02 2.36559138e-02 1.50537631e-02
      1.07526882e-02 3.22580636e-02 2.15053768e-03 1.72043014e-02
      1.07526882e-02 3.22580636e-02 4.73118275e-02 6.66666701e-02
      1.50537631e-02 0. 3.44086029e-02 8.60215072e-03 1.50537631e-02
      2.36559138e-02 1.07526882e-02 1.29032256e-02 1.50537631e-02
      2.36559138e-02 1.50537631e-02 1.50537631e-02 0. 1.93548389e-02
      4.30107536e-03 6.45161280e-03 2.36559138e-02 1.93548389e-02
      6.45161280e-03 6.45161280e-03 1.72043014e-02 1.93548389e-02</_>
    <_>
      6.57894742e-03 9.86842066e-03 1.64473690e-02 3.61842103e-02
      3.94736826e-02 4.60526310e-02 6.57894742e-03 6.57894742e-03
      2.30263155e-02 0. 1.97368413e-02 2.30263155e-02 3.28947380e-02
      4.60526310e-02 0. 6.57894742e-03 1.54605269e-01 9.86842066e-03
      1.97368413e-02 3.28947371e-03 6.57894742e-03 3.28947371e-03
      9.86842066e-03 6.57894742e-03 6.57894742e-03 9.86842066e-03
      6.57894742e-03 2.63157897e-02 9.86842066e-03 3.61842103e-02
      9.86842066e-03 6.57894742e-03 6.57894742e-03 6.57894742e-03
      4.27631587e-02 1.64473690e-02 4.60526310e-02 1.31578948e-02
      1.64473690e-02 3.28947371e-03 4.27631587e-02 2.63157897e-02
      6.57894742e-03 3.28947371e-03 9.86842066e-03 2.63157897e-02
      9.86842066e-03 6.57894760e-02 9.86842066e-03 3.28947371e-03</_>
    <_>
      2.72727273e-02 1.27272725e-01 0. 3.63636352e-02 1.31818175e-01
      4.54545440e-03 4.54545440e-03 4.54545468e-02 0. 0. 9.09090880e-03
      4.54545440e-03 5.00000007e-02 6.81818202e-02 9.09090880e-03
      1.36363637e-02 1.36363637e-02 1.36363637e-02 1.81818176e-02
      3.18181813e-02 9.09090880e-03 1.36363637e-02 1.81818176e-02 0.
      1.36363637e-02 0. 1.81818176e-02 2.72727273e-02 5.00000007e-02
      1.81818176e-02 9.09090880e-03 4.54545440e-03 0. 4.54545440e-03
      9.09090880e-03 4.09090891e-02 4.54545440e-03 9.09090880e-03
      1.36363637e-02 1.81818176e-02 1.36363637e-02 4.54545440e-03
      4.54545440e-03 5.00000007e-02 4.54545440e-03 2.72727273e-02 0. 0.
      0. 4.54545440e-03</_>
    <_>
      3.57142873e-02 0. 3.33333351e-02 9.52380989e-03 1.19047621e-02
      4.76190494e-03 2.61904765e-02 2.61904765e-02 2.14285720e-02
      3.80952395e-02 2.38095243e-02 2.38095247e-03 1.90476198e-02
      3.09523810e-02 5.95238097e-02 7.14285718e-03 1.66666675e-02
      2.14285720e-02 3.57142873e-02 2.14285720e-02 7.14285718e-03
      2.14285720e-02 1.42857144e-02 4.76190494e-03 9.52380989e-03
      1.66666675e-02 2.14285720e-02 3.33333351e-02 1.90476198e-02
      1.66666675e-02 1.42857144e-02 2.38095243e-02 2.38095247e-03
      4.76190494e-03 1.19047621e-02 0. 1.19047621e-02 3.80952395e-02
      3.09523810e-02 1.42857144e-02 4.76190494e-03 3.80952395e-02
      3.09523810e-02 4.76190494e-03 2.61904765e-02 4.76190485e-02
      3.33333351e-02 9.52380989e-03 3.09523810e-02 1.19047621e-02</_>
    <_>
      2.35849060e-02 9.43396240e-03 4.48113196e-02 2.59433966e-02
      7.07547180e-03 1.88679248e-02 2.35849060e-02 2.59433966e-02
      4.00943384e-02 2.35849060e-02 2.35849060e-02 1.88679248e-02
      1.41509436e-02 1.65094342e-02 1.88679248e-02 1.17924530e-02
      1.65094342e-02 1.88679248e-02 2.59433966e-02 9.43396240e-03
      1.88679248e-02 2.12264154e-02 1.17924530e-02 1.65094342e-02
      3.06603778e-02 2.59433966e-02 2.83018872e-02 2.12264154e-02
      4.71698120e-03 2.12264154e-02 2.35849060e-02 2.35849060e-02
      3.53773572e-02 2.12264154e-02 2.59433966e-02 1.65094342e-02
      2.12264154e-02 1.88679248e-02 1.65094342e-02 2.35849060e-02
      1.65094342e-02 1.88679248e-02 1.17924530e-02 4.71698120e-03
      1.88679248e-02 2.12264154e-02 7.07547180e-03 7.07547180e-03
      2.59433966e-02 2.35849060e-02</_>
    <_>
      3.82775106e-02 7.17703346e-03 3.82775106e-02 4.30622026e-02 0. 0.
      3.34928222e-02 4.06698547e-02 1.91387553e-02 1.67464111e-02
      1.91387553e-02 2.15311013e-02 3.11004780e-02 3.82775106e-02
      2.39234455e-02 7.17703346e-03 4.78468882e-03 3.34928222e-02
      1.67464111e-02 1.43540669e-02 1.91387553e-02 2.39234455e-02
      3.34928222e-02 1.91387553e-02 7.17703346e-03 7.17703346e-03
      3.82775106e-02 2.39234455e-02 4.78468882e-03 2.87081338e-02
      3.82775106e-02 2.87081338e-02 3.34928222e-02 1.67464111e-02
      7.17703346e-03 1.19617227e-02 7.17703346e-03 1.91387553e-02
      9.56937764e-03 7.17703346e-03 7.17703346e-03 4.06698547e-02
      1.67464111e-02 7.17703346e-03 2.15311013e-02 2.15311013e-02
      9.56937764e-03 9.56937764e-03 2.15311013e-02 1.19617227e-02</_>
    <_>
      4.82456125e-02 6.57894742e-03 2.41228063e-02 2.85087712e-02 0.
      6.57894742e-03 2.85087712e-02 5.48245609e-02 2.19298247e-02
      6.57894742e-03 1.09649124e-02 4.38596494e-03 1.97368413e-02
      1.75438598e-02 2.41228063e-02 1.75438598e-02 4.38596494e-03
      3.07017546e-02 1.09649124e-02 1.97368413e-02 2.63157897e-02
      1.75438598e-02 1.75438598e-02 2.19298247e-02 1.75438598e-02
      1.53508773e-02 3.94736826e-02 3.94736826e-02 1.09649124e-02
      3.72807011e-02 2.85087712e-02 3.28947380e-02 1.75438598e-02
      1.53508773e-02 4.38596494e-03 2.19298247e-02 1.09649124e-02
      2.41228063e-02 1.53508773e-02 1.75438598e-02 2.19298247e-03
      3.07017546e-02 4.82456125e-02 4.38596494e-03 1.75438598e-02
      1.53508773e-02 1.97368413e-02 8.77192989e-03 2.85087712e-02
      6.57894742e-03</_>
    <_>
      1.36518767e-02 1.05802044e-01 2.04778165e-02 3.41296941e-02
      2.04778165e-02 2.38907859e-02 2.73037534e-02 3.41296918e-03
      1.02389082e-02 1.02389082e-02 1.36518767e-02 1.02389082e-02
      3.41296941e-02 1.36518767e-02 3.41296918e-03 2.38907859e-02
      4.77815717e-02 2.04778165e-02 4.43686023e-02 1.70648471e-02
      3.07167228e-02 3.41296918e-03 5.11945374e-02 1.70648471e-02
      1.02389082e-02 6.82593836e-03 3.41296918e-03 1.36518767e-02
      3.75426635e-02 1.36518767e-02 2.38907859e-02 2.04778165e-02
      1.36518767e-02 0. 2.73037534e-02 2.38907859e-02 1.02389082e-02
      1.70648471e-02 2.73037534e-02 1.02389082e-02 6.82593836e-03
      2.04778165e-02 0. 5.46075068e-02 0. 2.04778165e-02 0.
      1.36518767e-02 1.02389082e-02 1.36518767e-02</_>
    <_>
      3.24074067e-02 5.32407425e-02 1.15740737e-02 3.24074067e-02
      4.16666679e-02 1.85185187e-02 6.94444450e-03 1.85185187e-02
      6.94444450e-03 1.62037034e-02 6.25000000e-02 4.39814813e-02
      2.77777780e-02 1.62037034e-02 2.31481474e-02 4.62962966e-03
      1.62037034e-02 1.85185187e-02 4.62962966e-03 2.54629627e-02
      1.38888890e-02 4.62962966e-03 3.93518507e-02 1.62037034e-02
      2.31481474e-02 1.85185187e-02 3.00925933e-02 1.15740737e-02
      4.16666679e-02 2.77777780e-02 1.38888890e-02 1.15740737e-02
      1.62037034e-02 2.31481483e-03 2.77777780e-02 6.94444450e-03
      1.62037034e-02 1.38888890e-02 3.93518507e-02 1.85185187e-02
      2.31481483e-03 2.31481474e-02 9.25925933e-03 2.08333340e-02
      1.62037034e-02 1.38888890e-02 9.25925933e-03 1.15740737e-02
      4.62962966e-03 1.38888890e-02</_>
    <_>
      4.09090891e-02 2.27272720e-03 2.27272720e-03 9.09090880e-03
      6.81818184e-03 7.50000030e-02 1.13636367e-02 4.54545440e-03
      2.50000004e-02 1.81818176e-02 1.59090906e-02 2.04545446e-02
      6.81818184e-03 2.04545446e-02 3.40909101e-02 4.54545440e-03
      1.11363634e-01 4.09090891e-02 9.09090880e-03 1.13636367e-02
      1.13636367e-02 1.36363637e-02 9.09090880e-03 4.09090891e-02
      4.09090891e-02 1.59090906e-02 1.59090906e-02 6.81818184e-03
      1.59090906e-02 2.04545446e-02 4.54545440e-03 4.54545440e-03
      1.59090906e-02 1.13636367e-02 2.95454543e-02 1.36363637e-02
      3.18181813e-02 1.59090906e-02 3.18181813e-02 1.36363637e-02
      9.09090880e-03 6.81818184e-03 1.59090906e-02 3.40909101e-02
      2.27272720e-03 2.27272734e-02 1.59090906e-02 2.72727273e-02
      1.36363637e-02 1.81818176e-02</_>
    <_>
      3.06345727e-02 0. 4.81400453e-02 3.50109413e-02 2.18818383e-03
      1.53172864e-02 2.40700226e-02 3.71991247e-02 1.96936540e-02
      2.18818374e-02 6.56455150e-03 6.56455150e-03 3.28227580e-02
      1.53172864e-02 1.09409187e-02 1.09409187e-02 2.40700226e-02
      2.18818383e-03 1.09409187e-02 2.84463894e-02 4.37636767e-03
      3.93873081e-02 3.50109413e-02 1.96936540e-02 3.06345727e-02
      3.50109413e-02 2.84463894e-02 3.71991247e-02 2.18818383e-03
      1.31291030e-02 4.37636767e-03 1.75054707e-02 1.96936540e-02
      1.53172864e-02 6.56455150e-03 1.31291030e-02 2.62582060e-02
      3.71991247e-02 2.18818374e-02 8.75273533e-03 3.71991247e-02
      4.37636767e-03 5.47045954e-02 4.37636767e-03 2.40700226e-02
      1.53172864e-02 1.96936540e-02 8.75273533e-03 1.96936540e-02
      1.31291030e-02</_>
    <_>
      0. 2.21729483e-02 1.99556537e-02 3.54767181e-02 2.21729488e-03
      1.77383590e-02 1.10864742e-02 1.99556537e-02 3.99113074e-02
      1.10864742e-02 2.88248342e-02 3.54767181e-02 1.33037698e-02
      3.76940146e-02 2.21729488e-03 1.33037698e-02 3.99113074e-02
      1.99556537e-02 6.65188488e-03 2.21729483e-02 2.43902430e-02
      8.86917952e-03 2.88248342e-02 5.09977825e-02 6.65188488e-03
      2.66075395e-02 3.10421288e-02 6.65188488e-03 2.21729488e-03
      1.55210644e-02 1.55210644e-02 2.43902430e-02 5.54323718e-02
      3.54767181e-02 3.10421288e-02 1.77383590e-02 1.33037698e-02
      1.77383590e-02 3.76940146e-02 2.21729483e-02 1.55210644e-02
      1.10864742e-02 4.43458976e-03 6.65188488e-03 2.43902430e-02
      1.77383590e-02 2.21729488e-03 2.43902430e-02 1.10864742e-02
      1.10864742e-02</_>
    <_>
      1.43884895e-02 2.15827338e-02 2.15827338e-02 2.39808150e-02
      1.43884895e-02 1.67865716e-02 3.35731432e-02 4.55635488e-02
      2.15827338e-02 7.19424477e-03 3.11750602e-02 7.19424477e-03
      1.91846527e-02 1.67865716e-02 9.59232636e-03 1.19904075e-02
      2.63788961e-02 1.91846527e-02 1.19904075e-02 9.59232636e-03
      2.15827338e-02 2.63788961e-02 2.39808150e-02 3.35731432e-02
      3.35731432e-02 3.35731432e-02 1.43884895e-02 3.35731432e-02
      1.67865716e-02 1.67865716e-02 1.19904075e-02 3.11750602e-02
      2.63788961e-02 1.43884895e-02 3.59712243e-02 2.63788961e-02
      2.39808150e-02 1.67865716e-02 3.35731432e-02 2.63788961e-02
      7.19424477e-03 9.59232636e-03 4.79616318e-03 1.43884895e-02
      1.43884895e-02 2.15827338e-02 9.59232636e-03 1.19904075e-02
      1.19904075e-02 9.59232636e-03</_>
    <_>
      2.30946876e-02 5.31177819e-02 2.30946876e-02 2.30946876e-02
      1.84757505e-02 6.92840666e-03 1.15473438e-02 2.07852200e-02
      3.46420333e-02 1.15473438e-02 1.15473438e-02 3.23325619e-02
      1.84757505e-02 3.00230943e-02 1.38568133e-02 1.84757505e-02
      2.30946881e-03 2.30946876e-02 1.15473438e-02 4.84988466e-02
      1.84757505e-02 2.07852200e-02 1.38568133e-02 2.07852200e-02
      9.23787523e-03 2.77136266e-02 2.07852200e-02 6.92840666e-03
      1.15473438e-02 9.23787523e-03 2.30946876e-02 2.30946876e-02
      3.69515009e-02 1.84757505e-02 2.54041571e-02 2.07852200e-02
      9.23787523e-03 6.92840666e-03 2.30946876e-02 3.23325619e-02
      4.61893762e-03 1.38568133e-02 1.15473438e-02 6.92840666e-03
      3.00230943e-02 4.61893762e-03 6.92840666e-03 3.00230943e-02
      2.30946876e-02 5.31177819e-02</_>
    <_>
      2.64705885e-02 2.94117648e-02 2.64705885e-02 4.41176482e-02
      1.76470596e-02 8.82352982e-03 3.52941193e-02 5.88235306e-03
      1.17647061e-02 0. 2.05882359e-02 4.41176482e-02 2.64705885e-02
      2.94117648e-02 1.76470596e-02 1.76470596e-02 2.64705885e-02
      5.88235306e-03 2.94117653e-03 4.41176482e-02 1.47058824e-02
      8.82352982e-03 1.17647061e-02 1.76470596e-02 2.94117653e-03
      2.35294122e-02 1.76470596e-02 1.47058824e-02 2.64705885e-02
      1.47058824e-02 2.05882359e-02 2.05882359e-02 2.64705885e-02
      2.05882359e-02 1.76470596e-02 2.05882359e-02 1.17647061e-02
      1.17647061e-02 3.52941193e-02 1.17647061e-02 8.82352982e-03
      3.52941193e-02 2.05882359e-02 1.47058824e-02 2.94117648e-02
      2.05882359e-02 8.82352982e-03 2.35294122e-02 1.47058824e-02
      3.23529430e-02</_>
    <_>
      8.02139007e-03 2.67379684e-03 2.40641702e-02 1.06951874e-02
      1.17647059e-01 2.67379675e-02 1.33689838e-02 1.87165774e-02
      1.60427801e-02 5.34759369e-03 3.47593576e-02 1.06951874e-02
      1.06951874e-02 9.09090936e-02 0. 0. 4.01069522e-02 4.27807495e-02
      3.20855603e-02 1.06951874e-02 5.34759369e-03 8.02139007e-03
      1.33689838e-02 5.34759369e-03 1.87165774e-02 4.54545468e-02
      8.02139007e-03 1.60427801e-02 4.27807495e-02 1.87165774e-02
      1.06951874e-02 2.67379684e-03 2.67379684e-03 1.06951874e-02
      3.20855603e-02 5.34759369e-03 1.60427801e-02 2.94117648e-02
      3.74331549e-02 1.06951874e-02 8.02139007e-03 5.34759369e-03
      2.94117648e-02 1.60427801e-02 1.06951874e-02 3.20855603e-02 0.
      1.33689838e-02 8.02139007e-03 2.13903747e-02</_>
    <_>
      1.86046511e-02 1.39534883e-02 5.34883738e-02 1.39534883e-02
      9.30232555e-03 1.16279069e-02 1.39534883e-02 3.25581394e-02
      1.86046511e-02 3.95348854e-02 1.39534883e-02 2.32558139e-03
      2.32558139e-02 2.09302325e-02 1.86046511e-02 3.95348854e-02
      2.32558139e-03 1.39534883e-02 3.02325580e-02 3.72093022e-02
      1.16279069e-02 2.79069766e-02 1.16279069e-02 2.32558139e-03
      2.32558139e-02 9.30232555e-03 2.32558139e-02 4.41860482e-02
      4.65116277e-03 9.30232555e-03 3.25581394e-02 6.74418584e-02
      3.02325580e-02 6.97674416e-03 1.39534883e-02 1.62790697e-02
      6.97674416e-03 2.32558139e-02 1.86046511e-02 2.79069766e-02
      1.39534883e-02 2.79069766e-02 1.86046511e-02 0. 3.02325580e-02
      2.32558139e-02 1.16279069e-02 0. 1.62790697e-02 1.86046511e-02</_>
    <_>
      3.09523810e-02 7.14285718e-03 2.85714287e-02 1.90476198e-02 0.
      1.19047621e-02 9.52380989e-03 2.61904765e-02 1.90476198e-02
      9.52380989e-03 1.90476198e-02 1.90476198e-02 1.66666675e-02
      2.61904765e-02 3.80952395e-02 1.19047621e-02 1.19047621e-02
      3.09523810e-02 1.42857144e-02 2.38095243e-02 1.90476198e-02
      2.61904765e-02 9.52380989e-03 1.90476198e-02 1.66666675e-02
      2.14285720e-02 1.66666675e-02 2.61904765e-02 1.42857144e-02
      2.61904765e-02 1.42857144e-02 2.38095243e-02 1.90476198e-02
      9.52380989e-03 3.57142873e-02 2.14285720e-02 1.90476198e-02
      3.80952395e-02 3.80952395e-02 1.90476198e-02 2.38095247e-03
      7.14285718e-03 3.80952395e-02 1.19047621e-02 3.33333351e-02
      4.28571440e-02 2.38095247e-03 1.42857144e-02 1.66666675e-02
      2.38095243e-02</_>
    <_>
      2.12264154e-02 3.06603778e-02 2.35849060e-02 1.65094342e-02
      2.35849060e-03 1.65094342e-02 9.43396240e-03 2.35849060e-02
      9.43396240e-03 3.53773572e-02 4.48113196e-02 3.30188684e-02
      2.12264154e-02 3.06603778e-02 1.88679248e-02 2.83018872e-02
      2.12264154e-02 4.71698120e-03 1.17924530e-02 2.59433966e-02
      2.83018872e-02 9.43396240e-03 4.00943384e-02 1.41509436e-02
      1.17924530e-02 2.35849060e-03 3.06603778e-02 4.48113196e-02
      9.43396240e-03 2.59433966e-02 2.83018872e-02 2.35849060e-02
      1.65094342e-02 1.17924530e-02 3.06603778e-02 1.17924530e-02
      9.43396240e-03 3.30188684e-02 4.24528308e-02 2.12264154e-02 0.
      1.41509436e-02 1.88679248e-02 7.07547180e-03 1.41509436e-02
      9.43396240e-03 1.41509436e-02 7.07547180e-03 1.17924530e-02
      2.83018872e-02</_>
    <_>
      1.58730168e-02 4.76190485e-02 2.38095243e-02 2.64550261e-02 0.
      2.64550257e-03 2.64550261e-02 3.43915336e-02 2.38095243e-02
      5.29100513e-03 7.93650839e-03 2.11640205e-02 2.64550261e-02
      5.82010597e-02 3.17460336e-02 3.17460336e-02 7.93650839e-03
      3.96825410e-02 1.05820103e-02 2.64550261e-02 2.11640205e-02
      1.58730168e-02 3.17460336e-02 1.05820103e-02 2.91005298e-02
      2.38095243e-02 2.91005298e-02 3.70370373e-02 2.64550257e-03
      2.38095243e-02 5.29100513e-03 1.58730168e-02 2.38095243e-02
      7.93650839e-03 1.58730168e-02 1.32275131e-02 2.64550257e-03
      6.34920672e-02 2.64550261e-02 7.93650839e-03 5.29100513e-03
      7.93650839e-03 2.91005298e-02 2.64550257e-03 7.93650839e-03
      2.11640205e-02 1.05820103e-02 1.05820103e-02 1.85185187e-02
      1.05820103e-02</_>
    <_>
      2.18978096e-02 7.29927002e-03 3.16301696e-02 1.70316305e-02
      2.43309001e-03 4.86618001e-03 1.94647200e-02 2.91970801e-02
      2.91970801e-02 7.29927002e-03 5.59610687e-02 2.67639905e-02
      3.16301696e-02 1.21654505e-02 2.67639905e-02 2.18978096e-02
      2.18978096e-02 1.94647200e-02 1.45985400e-02 1.70316305e-02
      1.45985400e-02 1.70316305e-02 2.43309010e-02 2.91970801e-02
      2.18978096e-02 9.73236002e-03 2.91970801e-02 2.43309010e-02
      7.29927002e-03 2.91970801e-02 1.94647200e-02 4.37956192e-02
      9.73236002e-03 1.45985400e-02 2.18978096e-02 3.64963487e-02
      2.18978096e-02 2.43309010e-02 4.86618001e-03 1.45985400e-02
      9.73236002e-03 2.18978096e-02 2.43309010e-02 2.43309001e-03
      7.29927002e-03 1.94647200e-02 1.70316305e-02 1.70316305e-02
      2.67639905e-02 1.70316305e-02</_>
    <_>
      2.15827338e-02 4.79616318e-03 3.83693054e-02 2.39808150e-02
      1.19904075e-02 4.79616318e-03 5.27577922e-02 2.63788961e-02
      1.91846527e-02 9.59232636e-03 4.55635488e-02 9.59232636e-03
      2.15827338e-02 2.39808150e-02 3.35731432e-02 1.67865716e-02
      1.91846527e-02 2.39808150e-02 1.91846527e-02 2.39808150e-02
      3.83693054e-02 2.39808150e-02 1.43884895e-02 2.15827338e-02
      4.79616318e-03 1.91846527e-02 2.87769791e-02 4.31654677e-02
      4.79616318e-03 2.63788961e-02 1.91846527e-02 2.63788961e-02
      9.59232636e-03 1.43884895e-02 1.43884895e-02 1.19904075e-02
      1.43884895e-02 5.03597111e-02 4.79616318e-03 2.63788961e-02
      4.79616318e-03 9.59232636e-03 1.19904075e-02 4.79616318e-03
      1.43884895e-02 2.39808150e-02 1.19904075e-02 1.19904075e-02
      2.39808150e-02 1.43884895e-02</_>
    <_>
      2.14285720e-02 3.09523810e-02 3.57142873e-02 2.61904765e-02
      9.52380989e-03 4.76190494e-03 1.42857144e-02 2.61904765e-02
      7.14285718e-03 3.33333351e-02 4.52380963e-02 1.90476198e-02
      3.09523810e-02 7.14285718e-03 3.57142873e-02 4.28571440e-02
      1.42857144e-02 1.66666675e-02 2.61904765e-02 3.57142873e-02
      2.38095243e-02 1.42857144e-02 1.66666675e-02 1.66666675e-02
      5.23809530e-02 1.90476198e-02 2.14285720e-02 2.38095243e-02
      7.14285718e-03 2.38095247e-03 3.33333351e-02 3.09523810e-02
      2.38095243e-02 4.76190494e-03 1.42857144e-02 1.90476198e-02
      7.14285718e-03 2.85714287e-02 2.14285720e-02 1.90476198e-02
      2.38095247e-03 1.19047621e-02 1.42857144e-02 7.14285718e-03
      1.19047621e-02 9.52380989e-03 2.38095247e-03 4.76190494e-03
      1.90476198e-02 3.33333351e-02</_>
    <_>
      3.13315913e-02 2.61096610e-03 2.34986953e-02 3.39425579e-02 0.
      1.56657957e-02 6.00522198e-02 4.96083535e-02 1.82767622e-02
      1.04438644e-02 3.39425579e-02 2.08877288e-02 3.13315913e-02
      2.61096600e-02 4.96083535e-02 1.56657957e-02 1.04438644e-02
      4.17754576e-02 2.61096610e-03 3.91644910e-02 1.82767622e-02
      1.82767622e-02 2.61096600e-02 1.04438644e-02 5.22193220e-03
      2.34986953e-02 1.82767622e-02 5.74412532e-02 0. 2.34986953e-02
      2.08877288e-02 2.61096600e-02 2.87206266e-02 1.30548300e-02
      2.61096610e-03 5.22193220e-03 7.83289783e-03 4.43864241e-02
      2.61096610e-03 1.82767622e-02 0. 1.56657957e-02 1.56657957e-02 0.
      1.56657957e-02 1.56657957e-02 1.56657957e-02 5.22193220e-03
      5.22193220e-03 2.34986953e-02</_>
    <_>
      1.19047621e-02 4.76190494e-03 4.76190485e-02 1.66666675e-02
      2.38095247e-03 1.19047621e-02 2.38095247e-03 2.14285720e-02
      2.61904765e-02 2.14285720e-02 4.04761918e-02 1.90476198e-02
      4.04761918e-02 2.61904765e-02 1.19047621e-02 2.14285720e-02
      7.14285718e-03 2.38095243e-02 2.61904765e-02 1.66666675e-02
      3.57142873e-02 1.66666675e-02 3.33333351e-02 1.42857144e-02
      3.33333351e-02 2.14285720e-02 1.66666675e-02 1.66666675e-02
      4.76190494e-03 3.09523810e-02 2.38095243e-02 1.19047621e-02
      2.14285720e-02 1.19047621e-02 2.85714287e-02 2.38095247e-03
      1.19047621e-02 5.47619052e-02 1.90476198e-02 2.38095243e-02
      4.76190494e-03 2.38095243e-02 3.09523810e-02 7.14285718e-03
      1.19047621e-02 1.42857144e-02 1.66666675e-02 1.19047621e-02
      2.61904765e-02 1.90476198e-02</_>
    <_>
      9.52380989e-03 2.61904765e-02 3.57142873e-02 3.33333351e-02 0.
      7.14285718e-03 2.85714287e-02 2.38095243e-02 1.42857144e-02
      9.52380989e-03 4.28571440e-02 4.28571440e-02 4.04761918e-02
      2.38095247e-03 4.76190494e-03 3.80952395e-02 1.90476198e-02
      2.85714287e-02 2.14285720e-02 2.61904765e-02 6.66666701e-02
      7.14285718e-03 1.66666675e-02 2.85714287e-02 4.52380963e-02
      1.66666675e-02 9.52380989e-03 7.14285718e-03 0. 2.14285720e-02
      1.66666675e-02 3.33333351e-02 2.85714287e-02 9.52380989e-03
      2.61904765e-02 1.42857144e-02 7.14285718e-03 1.19047621e-02
      1.42857144e-02 2.85714287e-02 2.61904765e-02 9.52380989e-03
      4.76190494e-03 4.76190494e-03 2.38095247e-03 7.14285718e-03
      2.14285720e-02 1.42857144e-02 2.85714287e-02 1.66666675e-02</_>
    <_>
      2.42718440e-02 7.28155347e-03 2.18446609e-02 7.28155347e-03
      4.36893217e-02 9.70873795e-03 2.66990289e-02 3.64077687e-02
      9.70873795e-03 9.70873795e-03 2.42718440e-02 2.18446609e-02
      2.42718440e-02 2.91262139e-02 1.94174759e-02 2.66990289e-02
      7.28155347e-03 3.64077687e-02 1.94174759e-02 1.94174759e-02
      2.18446609e-02 2.91262139e-02 2.18446609e-02 1.45631069e-02
      2.18446609e-02 1.94174759e-02 1.21359220e-02 2.91262139e-02
      1.94174759e-02 4.85436898e-03 2.42718440e-02 3.15533988e-02
      2.42718440e-02 4.85436898e-03 7.28155347e-03 1.69902910e-02
      2.42718449e-03 7.76699036e-02 2.18446609e-02 4.85436898e-03
      1.45631069e-02 1.45631069e-02 3.15533988e-02 1.21359220e-02
      1.94174759e-02 1.94174759e-02 2.18446609e-02 9.70873795e-03
      1.45631069e-02 7.28155347e-03</_>
    <_>
      2.61282660e-02 4.75059403e-03 3.08788605e-02 1.18764844e-02
      2.37529702e-03 4.75059403e-03 2.61282660e-02 2.37529688e-02
      1.66270789e-02 2.85035633e-02 3.32541578e-02 1.90023761e-02
      2.37529688e-02 1.18764844e-02 2.13776715e-02 4.27553430e-02
      4.75059403e-03 1.66270789e-02 2.13776715e-02 2.85035633e-02
      3.32541578e-02 2.37529688e-02 4.75059403e-03 9.50118806e-03
      2.61282660e-02 1.42517816e-02 1.90023761e-02 2.13776715e-02
      7.12589081e-03 3.32541578e-02 1.90023761e-02 4.27553430e-02
      4.03800458e-02 9.50118806e-03 9.50118806e-03 7.12589081e-03
      2.13776715e-02 4.27553430e-02 2.85035633e-02 1.66270789e-02
      2.37529702e-03 2.85035633e-02 2.61282660e-02 4.75059403e-03
      2.13776715e-02 1.90023761e-02 1.66270789e-02 2.37529702e-03
      4.03800458e-02 9.50118806e-03</_>
    <_>
      1.66666675e-02 1.19047621e-02 5.71428575e-02 1.90476198e-02 0. 0.
      2.38095247e-03 2.61904765e-02 1.42857144e-02 1.66666675e-02
      5.47619052e-02 9.52380989e-03 6.42857179e-02 1.66666675e-02
      3.33333351e-02 2.14285720e-02 4.76190494e-03 3.09523810e-02
      3.57142873e-02 4.04761918e-02 3.09523810e-02 9.52380989e-03
      1.66666675e-02 9.52380989e-03 9.52380989e-03 9.52380989e-03
      1.19047621e-02 2.85714287e-02 7.14285718e-03 3.09523810e-02
      3.33333351e-02 1.19047621e-02 1.66666675e-02 7.14285718e-03
      9.52380989e-03 1.42857144e-02 1.42857144e-02 4.04761918e-02
      2.38095243e-02 1.42857144e-02 0. 3.33333351e-02 1.66666675e-02 0.
      2.38095243e-02 1.90476198e-02 9.52380989e-03 9.52380989e-03
      4.28571440e-02 1.90476198e-02</_>
    <_>
      1.69082116e-02 1.69082116e-02 2.41545886e-02 9.66183562e-03
      4.83091781e-03 7.24637695e-03 9.66183562e-03 3.14009674e-02
      1.69082116e-02 4.34782617e-02 4.58937213e-02 1.93236712e-02
      3.38164233e-02 2.17391308e-02 6.03864752e-02 2.17391308e-02
      9.66183562e-03 3.14009674e-02 2.17391308e-02 2.41545886e-02
      1.93236712e-02 1.20772943e-02 2.41545886e-02 9.66183562e-03
      4.83091781e-03 2.17391308e-02 2.41545886e-02 4.83091772e-02
      1.20772943e-02 2.65700482e-02 4.83091781e-03 4.34782617e-02
      2.89855078e-02 9.66183562e-03 7.24637695e-03 4.83091781e-03
      1.44927539e-02 2.65700482e-02 1.69082116e-02 1.93236712e-02
      7.24637695e-03 2.17391308e-02 2.89855078e-02 7.24637695e-03
      7.24637695e-03 2.65700482e-02 2.41545890e-03 1.44927539e-02
      2.89855078e-02 4.83091781e-03</_>
    <_>
      2.20048893e-02 2.44498788e-03 4.40097786e-02 4.15647924e-02
      2.93398537e-02 1.22249387e-02 2.44498774e-02 1.46699268e-02
      2.20048893e-02 9.77995154e-03 2.20048893e-02 3.42298299e-02
      3.66748162e-02 3.66748162e-02 1.22249387e-02 2.44498774e-02
      7.33496342e-03 1.71149150e-02 9.77995154e-03 2.68948656e-02
      2.93398537e-02 1.95599031e-02 3.42298299e-02 9.77995154e-03
      1.46699268e-02 2.20048893e-02 1.71149150e-02 2.68948656e-02
      4.40097786e-02 2.20048893e-02 3.17848399e-02 1.22249387e-02
      9.77995154e-03 1.71149150e-02 2.44498788e-03 1.22249387e-02
      1.95599031e-02 2.93398537e-02 1.71149150e-02 2.44498774e-02
      9.77995154e-03 1.22249387e-02 1.46699268e-02 7.33496342e-03
      4.88997577e-03 2.20048893e-02 1.71149150e-02 2.44498788e-03
      2.93398537e-02 1.46699268e-02</_>
    <_>
      2.83018872e-02 4.24528308e-02 5.18867932e-02 4.00943384e-02
      2.12264154e-02 2.35849060e-02 3.77358496e-02 1.41509436e-02
      4.71698120e-03 9.43396240e-03 1.65094342e-02 2.35849060e-02
      1.65094342e-02 1.17924530e-02 2.12264154e-02 5.66037744e-02
      9.43396240e-03 9.43396240e-03 9.43396240e-03 2.35849060e-02
      1.17924530e-02 2.83018872e-02 4.24528308e-02 4.71698120e-03
      2.12264154e-02 9.43396240e-03 2.35849060e-02 2.35849060e-02
      2.35849060e-03 1.65094342e-02 7.07547180e-03 4.48113196e-02
      3.06603778e-02 1.88679248e-02 1.17924530e-02 1.65094342e-02
      9.43396240e-03 1.65094342e-02 7.07547180e-03 7.07547180e-03
      7.07547180e-03 1.88679248e-02 3.53773572e-02 2.35849060e-03
      7.07547180e-03 1.88679248e-02 4.71698120e-03 2.59433966e-02
      3.06603778e-02 2.35849060e-02</_>
    <_>
      2.14285720e-02 1.19047621e-02 2.38095243e-02 2.85714287e-02
      2.38095247e-03 4.76190494e-03 4.52380963e-02 4.28571440e-02
      3.33333351e-02 1.19047621e-02 3.80952395e-02 2.61904765e-02
      4.28571440e-02 3.33333351e-02 1.42857144e-02 2.38095243e-02
      7.14285718e-03 9.52380989e-03 1.66666675e-02 5.00000007e-02
      4.28571440e-02 1.90476198e-02 2.14285720e-02 7.14285718e-03
      3.09523810e-02 9.52380989e-03 2.38095243e-02 2.14285720e-02
      4.76190494e-03 1.90476198e-02 2.14285720e-02 1.19047621e-02
      4.04761918e-02 4.76190494e-03 9.52380989e-03 4.76190494e-03
      4.76190494e-03 1.90476198e-02 1.19047621e-02 3.09523810e-02
      4.76190494e-03 1.90476198e-02 2.38095243e-02 2.38095247e-03
      2.14285720e-02 9.52380989e-03 9.52380989e-03 7.14285718e-03
      3.80952395e-02 1.66666675e-02</_>
    <_>
      7.24637695e-03 2.41545890e-03 3.14009674e-02 1.93236712e-02
      4.83091781e-03 1.93236712e-02 3.38164233e-02 4.34782617e-02
      9.66183562e-03 9.66183562e-03 1.93236712e-02 1.44927539e-02
      2.41545886e-02 2.89855078e-02 2.41545886e-02 1.93236712e-02
      7.24637695e-03 5.07246368e-02 9.66183562e-03 3.86473425e-02
      3.38164233e-02 1.44927539e-02 2.89855078e-02 2.41545886e-02
      4.83091781e-03 1.69082116e-02 3.14009674e-02 6.03864752e-02
      2.41545886e-02 7.24637695e-03 1.44927539e-02 2.89855078e-02
      2.17391308e-02 1.69082116e-02 9.66183562e-03 2.89855078e-02
      4.83091781e-03 5.31400964e-02 4.83091781e-03 3.86473425e-02
      4.83091781e-03 4.83091781e-03 9.66183562e-03 0. 7.24637695e-03
      2.89855078e-02 1.93236712e-02 2.41545890e-03 2.65700482e-02
      9.66183562e-03</_>
    <_>
      4.15584408e-02 5.19480510e-03 1.55844158e-02 2.59740259e-02 0.
      2.07792204e-02 7.79220788e-03 2.07792204e-02 1.81818176e-02
      5.19480510e-03 1.55844158e-02 1.29870130e-02 1.81818176e-02
      3.37662324e-02 3.63636352e-02 7.79220788e-03 3.37662324e-02
      4.67532463e-02 2.33766232e-02 3.11688315e-02 7.79220788e-03
      1.81818176e-02 2.07792204e-02 3.37662324e-02 1.03896102e-02
      1.29870130e-02 3.63636352e-02 4.15584408e-02 1.55844158e-02
      2.85714287e-02 1.55844158e-02 3.89610380e-02 5.19480510e-03
      1.03896102e-02 3.11688315e-02 1.55844158e-02 1.03896102e-02
      4.15584408e-02 5.19480510e-03 1.03896102e-02 1.03896102e-02
      1.55844158e-02 5.19480519e-02 5.19480510e-03 1.55844158e-02
      1.81818176e-02 7.79220788e-03 1.29870130e-02 2.07792204e-02
      1.03896102e-02</_>
    <_>
      5.48302867e-02 5.22193220e-03 1.30548300e-02 3.39425579e-02
      2.61096610e-03 2.61096610e-03 1.82767622e-02 3.65535244e-02
      1.82767622e-02 5.22193220e-03 1.04438644e-02 2.61096610e-03
      5.48302867e-02 3.65535244e-02 8.35509151e-02 2.61096610e-03
      2.87206266e-02 3.39425579e-02 1.04438644e-02 2.34986953e-02
      1.04438644e-02 2.34986953e-02 1.30548300e-02 0. 5.22193220e-03
      1.04438644e-02 2.61096600e-02 6.52741492e-02 7.83289783e-03
      1.82767622e-02 2.87206266e-02 1.82767622e-02 3.13315913e-02
      7.83289783e-03 5.22193220e-03 5.22193220e-03 5.22193220e-03
      6.00522198e-02 2.61096610e-03 7.83289783e-03 5.22193220e-03
      3.39425579e-02 3.13315913e-02 5.22193220e-03 1.82767622e-02
      1.56657957e-02 5.22193220e-03 1.04438644e-02 3.39425579e-02
      1.04438644e-02</_>
    <_>
      2.93398537e-02 1.22249387e-02 3.66748162e-02 3.17848399e-02
      4.88997577e-03 0. 4.15647924e-02 2.44498774e-02 1.71149150e-02
      5.13447449e-02 2.93398537e-02 2.44498788e-03 1.95599031e-02
      2.68948656e-02 6.11246936e-02 2.44498774e-02 9.77995154e-03
      7.33496342e-03 1.22249387e-02 4.15647924e-02 2.44498774e-02
      2.68948656e-02 2.68948656e-02 1.22249387e-02 2.44498774e-02
      9.77995154e-03 5.62347174e-02 3.91198061e-02 0. 7.33496342e-03
      2.68948656e-02 2.44498774e-02 3.66748162e-02 4.88997577e-03
      2.44498788e-03 2.44498788e-03 2.44498788e-03 4.15647924e-02
      2.44498788e-03 4.88997577e-03 0. 3.42298299e-02 2.44498774e-02 0.
      1.22249387e-02 9.77995154e-03 2.44498774e-02 2.44498788e-03
      2.44498774e-02 7.33496342e-03</_>
    <_>
      1.71568636e-02 9.80392192e-03 3.67647074e-02 2.69607846e-02 0.
      2.45098048e-03 4.65686284e-02 4.41176482e-02 4.90196096e-03
      3.43137272e-02 3.92156877e-02 2.45098048e-03 3.18627469e-02
      2.94117648e-02 3.67647074e-02 3.43137272e-02 0. 2.69607846e-02
      1.47058824e-02 3.67647074e-02 2.69607846e-02 2.45098048e-03
      3.18627469e-02 7.35294120e-03 2.45098048e-03 7.35294120e-03
      3.92156877e-02 2.20588241e-02 2.20588241e-02 1.71568636e-02
      9.80392192e-03 2.69607846e-02 3.43137272e-02 1.71568636e-02
      2.45098048e-03 1.47058824e-02 2.45098048e-03 2.69607846e-02
      2.45098048e-03 1.96078438e-02 4.90196096e-03 3.43137272e-02
      1.71568636e-02 7.35294120e-03 1.71568636e-02 1.22549022e-02
      4.90196086e-02 0. 2.94117648e-02 1.71568636e-02</_>
    <_>
      4.15704399e-02 2.30946881e-03 2.77136266e-02 5.08083142e-02
      6.92840666e-03 9.23787523e-03 3.46420333e-02 4.84988466e-02
      3.23325619e-02 2.30946876e-02 1.61662810e-02 4.61893762e-03
      3.00230943e-02 2.54041571e-02 4.84988466e-02 1.38568133e-02
      9.23787523e-03 1.84757505e-02 1.15473438e-02 2.77136266e-02
      4.61893762e-03 2.07852200e-02 2.07852200e-02 9.23787523e-03
      1.38568133e-02 2.54041571e-02 9.23787523e-03 5.54272532e-02
      2.30946881e-03 2.77136266e-02 2.77136266e-02 3.00230943e-02
      1.84757505e-02 0. 2.30946881e-03 6.92840666e-03 1.61662810e-02
      4.38799076e-02 6.92840666e-03 1.61662810e-02 2.30946881e-03
      2.54041571e-02 3.23325619e-02 0. 1.84757505e-02 1.38568133e-02
      1.15473438e-02 1.38568133e-02 3.00230943e-02 1.15473438e-02</_>
    <_>
      2.43309010e-02 2.43309001e-03 1.94647200e-02 3.16301696e-02
      2.43309001e-03 7.29927002e-03 7.05596134e-02 7.29926974e-02
      1.45985400e-02 1.21654505e-02 7.29927002e-03 4.86618001e-03
      1.94647200e-02 2.43309010e-02 3.64963487e-02 9.73236002e-03
      1.45985400e-02 1.45985400e-02 1.45985400e-02 4.13625315e-02
      9.73236002e-03 1.70316305e-02 1.45985400e-02 1.21654505e-02
      7.29927002e-03 1.70316305e-02 2.67639905e-02 3.40632610e-02
      7.29927002e-03 2.43309010e-02 7.29927002e-03 1.94647200e-02
      3.89294401e-02 1.70316305e-02 1.45985400e-02 4.86618001e-03
      9.73236002e-03 3.16301696e-02 9.73236002e-03 2.43309010e-02 0.
      2.43309010e-02 4.37956192e-02 9.73236002e-03 1.70316305e-02
      1.45985400e-02 4.13625315e-02 4.86618001e-03 2.91970801e-02
      2.18978096e-02</_>
    <_>
      2.19512191e-02 1.95121951e-02 1.95121951e-02 2.68292688e-02 0.
      1.46341464e-02 2.43902430e-02 2.68292688e-02 1.70731712e-02
      1.21951215e-02 2.68292688e-02 2.19512191e-02 3.17073166e-02
      1.70731712e-02 2.43902430e-02 4.63414639e-02 4.87804879e-03
      2.19512191e-02 0. 3.41463424e-02 4.14634161e-02 1.95121951e-02
      1.46341464e-02 7.31707318e-03 1.95121951e-02 1.46341464e-02
      3.17073166e-02 4.14634161e-02 2.43902439e-03 3.65853645e-02
      1.95121951e-02 3.17073166e-02 1.95121951e-02 9.75609757e-03
      2.68292688e-02 7.31707318e-03 9.75609757e-03 2.43902430e-02
      3.17073166e-02 1.95121951e-02 2.68292688e-02 2.43902430e-02
      1.95121951e-02 2.43902439e-03 2.19512191e-02 1.46341464e-02
      1.46341464e-02 7.31707318e-03 1.46341464e-02 1.21951215e-02</_>
    <_>
      2.34986953e-02 5.22193220e-03 2.61096600e-02 1.82767622e-02
      2.61096610e-03 1.30548300e-02 2.34986953e-02 2.87206266e-02
      1.56657957e-02 1.04438644e-02 4.17754576e-02 1.56657957e-02
      1.04438644e-02 4.96083535e-02 4.69973907e-02 7.83289783e-03
      1.30548300e-02 3.13315913e-02 3.65535244e-02 3.39425579e-02
      1.56657957e-02 7.83289783e-03 2.34986953e-02 1.56657957e-02
      1.56657957e-02 1.56657957e-02 7.83289783e-03 4.69973907e-02
      2.61096610e-03 2.34986953e-02 4.17754576e-02 2.34986953e-02
      5.22193220e-03 7.83289783e-03 1.04438644e-02 1.30548300e-02
      7.83289783e-03 3.39425579e-02 7.83289783e-03 4.96083535e-02
      2.61096610e-03 1.56657957e-02 3.39425579e-02 1.04438644e-02
      1.82767622e-02 3.65535244e-02 1.56657957e-02 5.22193220e-03
      2.61096600e-02 5.22193220e-03</_>
    <_>
      2.09302325e-02 9.30232555e-03 2.32558139e-02 1.86046511e-02
      6.97674416e-03 2.79069766e-02 3.25581394e-02 1.86046511e-02
      3.02325580e-02 1.86046511e-02 3.72093022e-02 1.62790697e-02
      9.30232555e-03 1.62790697e-02 3.02325580e-02 1.62790697e-02
      1.86046511e-02 3.95348854e-02 2.32558139e-02 2.79069766e-02
      1.39534883e-02 1.86046511e-02 2.32558139e-02 1.86046511e-02
      1.39534883e-02 1.86046511e-02 3.02325580e-02 2.55813953e-02
      9.30232555e-03 2.55813953e-02 1.62790697e-02 2.32558139e-02
      6.97674416e-03 1.39534883e-02 1.62790697e-02 1.39534883e-02
      1.86046511e-02 4.18604650e-02 1.62790697e-02 2.09302325e-02
      2.32558139e-03 1.62790697e-02 2.79069766e-02 1.39534883e-02
      1.62790697e-02 4.18604650e-02 9.30232555e-03 4.65116277e-03
      1.62790697e-02 2.32558139e-02</_>
    <_>
      9.38967150e-03 4.69483575e-03 5.63380271e-02 1.87793430e-02 0.
      7.04225339e-03 3.28638479e-02 2.58215964e-02 1.40845068e-02
      1.87793430e-02 1.87793430e-02 1.17370896e-02 1.64319240e-02
      9.38967150e-03 3.99061032e-02 7.04225339e-03 1.87793430e-02
      3.52112688e-02 1.64319240e-02 1.87793430e-02 1.64319240e-02
      2.11267602e-02 1.40845068e-02 2.58215964e-02 2.34741792e-02
      1.17370896e-02 3.75586860e-02 4.22535203e-02 2.34741787e-03
      2.58215964e-02 1.64319240e-02 2.81690136e-02 2.34741792e-02
      1.87793430e-02 1.87793430e-02 2.34741792e-02 1.17370896e-02
      4.22535203e-02 4.46009375e-02 4.69483575e-03 4.69483575e-03
      9.38967150e-03 1.17370896e-02 9.38967150e-03 1.40845068e-02
      3.28638479e-02 3.28638479e-02 9.38967150e-03 2.34741792e-02
      1.87793430e-02</_>
    <_>
      3.03030312e-02 6.99300691e-03 1.16550112e-02 4.66200449e-02
      2.33100238e-03 6.99300691e-03 6.99300691e-03 2.56410260e-02
      2.09790207e-02 2.09790207e-02 3.49650346e-02 2.09790207e-02
      1.63170155e-02 3.49650346e-02 1.39860138e-02 4.66200477e-03
      1.16550112e-02 1.63170155e-02 6.99300691e-03 3.72960381e-02
      1.16550112e-02 2.09790207e-02 1.86480191e-02 1.63170155e-02
      2.79720277e-02 3.26340310e-02 1.16550112e-02 3.96270379e-02
      2.09790207e-02 1.39860138e-02 2.33100224e-02 1.63170155e-02
      2.56410260e-02 1.86480191e-02 1.86480191e-02 1.86480191e-02
      2.09790207e-02 2.33100224e-02 1.63170155e-02 2.09790207e-02
      4.66200477e-03 3.72960381e-02 9.32400953e-03 1.86480191e-02
      2.09790207e-02 2.79720277e-02 6.99300691e-03 1.86480191e-02
      1.39860138e-02 4.66200449e-02</_>
    <_>
      1.89573467e-02 2.84360182e-02 3.55450250e-02 1.89573467e-02
      9.47867334e-03 4.73933667e-03 2.84360182e-02 1.65876783e-02
      3.55450250e-02 1.65876783e-02 2.60663498e-02 1.42180091e-02
      3.79146934e-02 9.47867334e-03 2.36966833e-02 1.42180091e-02
      2.36966833e-03 1.89573467e-02 7.10900454e-03 1.42180091e-02
      1.42180091e-02 1.42180091e-02 2.84360182e-02 2.36966833e-02
      1.89573467e-02 3.55450250e-02 1.42180091e-02 2.13270150e-02
      4.73933667e-03 2.36966833e-02 2.36966833e-02 3.31753567e-02
      2.13270150e-02 3.08056865e-02 9.47867334e-03 9.47867334e-03
      2.36966833e-02 1.42180091e-02 1.65876783e-02 1.18483417e-02
      7.10900454e-03 3.31753567e-02 3.55450250e-02 7.10900454e-03
      2.84360182e-02 1.65876783e-02 1.42180091e-02 1.18483417e-02
      3.79146934e-02 3.31753567e-02</_>
    <_>
      2.07039341e-03 1.86335407e-02 1.65631473e-02 4.34782617e-02 0.
      4.96894419e-02 4.14078683e-03 6.21118024e-03 2.07039341e-02
      1.65631473e-02 1.03519671e-02 5.17598353e-02 1.65631473e-02
      6.21118024e-03 0. 1.24223605e-02 5.79710156e-02 1.03519671e-02
      2.69151144e-02 6.21118024e-03 2.07039341e-02 4.76190485e-02
      2.89855078e-02 2.89855078e-02 8.28157365e-03 2.48447210e-02
      4.14078683e-03 2.07039341e-03 2.07039341e-03 1.44927539e-02
      4.14078683e-03 3.93374749e-02 4.76190485e-02 4.55486551e-02
      6.00414090e-02 5.38302287e-02 3.72670814e-02 6.21118024e-03
      6.21118024e-03 8.28157365e-03 2.89855078e-02 8.28157365e-03
      8.28157365e-03 2.07039341e-03 1.24223605e-02 1.65631473e-02 0.
      3.93374749e-02 6.21118024e-03 1.03519671e-02</_>
    <_>
      4.47427295e-03 2.46085003e-02 1.56599544e-02 2.68456377e-02
      4.47427295e-03 6.04026839e-02 1.56599544e-02 4.02684547e-02
      2.90827733e-02 1.34228189e-02 8.94854590e-03 3.57941836e-02
      1.11856824e-02 1.11856824e-02 1.11856824e-02 1.34228189e-02
      3.80313210e-02 6.71140943e-03 1.34228189e-02 2.23713648e-03
      8.94854590e-03 4.02684547e-02 4.47427295e-02 3.13199088e-02
      1.78970918e-02 6.71140943e-03 8.94854590e-03 1.78970918e-02
      2.23713648e-03 3.80313210e-02 2.23713648e-03 2.90827733e-02
      2.01342274e-02 4.25055921e-02 5.36912754e-02 4.92170006e-02
      2.23713648e-02 6.71140943e-03 6.71140943e-03 1.34228189e-02 0.
      2.01342274e-02 2.46085003e-02 4.47427295e-03 2.23713648e-02
      2.90827733e-02 1.11856824e-02 1.56599544e-02 8.94854590e-03
      1.34228189e-02</_>
    <_>
      1.94384456e-02 2.15982716e-03 1.29589634e-02 4.31965431e-03
      3.02375816e-02 1.29589634e-02 1.94384456e-02 2.15982720e-02
      1.51187908e-02 3.02375816e-02 3.23974080e-02 1.72786172e-02
      1.29589634e-02 3.45572345e-02 4.31965431e-03 2.37580985e-02
      2.37580985e-02 1.72786172e-02 1.94384456e-02 2.80777533e-02
      6.47948170e-03 1.94384456e-02 4.53563705e-02 1.07991360e-02
      3.88768911e-02 1.72786172e-02 2.37580985e-02 3.02375816e-02
      1.94384456e-02 1.51187908e-02 1.72786172e-02 1.51187908e-02
      2.59179268e-02 4.31965431e-03 1.07991360e-02 1.29589634e-02
      2.59179268e-02 6.47948170e-03 2.37580985e-02 3.67170610e-02
      2.15982716e-03 2.59179268e-02 2.37580985e-02 3.88768911e-02
      2.59179268e-02 2.37580985e-02 6.47948170e-03 2.15982720e-02
      1.07991360e-02 3.23974080e-02</_>
    <_>
      2.38611717e-02 8.67678970e-03 2.16919743e-02 2.60303691e-02 0.
      1.73535794e-02 2.38611717e-02 3.90455537e-02 4.55531441e-02
      2.38611717e-02 8.67678970e-03 3.90455537e-02 1.30151846e-02
      1.08459871e-02 1.08459871e-02 1.73535794e-02 2.60303691e-02
      2.16919743e-02 1.30151846e-02 4.33839485e-03 1.08459871e-02
      4.33839485e-02 1.73535794e-02 3.90455537e-02 2.16919743e-03
      2.16919743e-02 3.47071588e-02 1.73535794e-02 2.16919743e-03
      1.95227768e-02 1.08459871e-02 3.47071588e-02 3.47071588e-02
      2.38611717e-02 7.59219080e-02 3.47071588e-02 1.51843820e-02
      1.08459871e-02 1.95227768e-02 1.95227768e-02 1.73535794e-02
      2.16919743e-03 4.33839485e-03 6.50759228e-03 1.51843820e-02
      2.60303691e-02 4.33839485e-03 2.16919743e-02 8.67678970e-03
      1.08459871e-02</_>
    <_>
      3.34821418e-02 6.69642864e-03 2.45535709e-02 5.13392873e-02
      2.23214296e-03 8.92857183e-03 4.24107127e-02 3.79464291e-02
      1.78571437e-02 1.11607146e-02 1.78571437e-02 6.69642864e-03
      6.69642864e-03 6.69642864e-03 6.02678582e-02 1.11607146e-02
      1.78571437e-02 2.00892854e-02 1.33928573e-02 1.11607146e-02
      1.33928573e-02 4.24107127e-02 2.45535709e-02 1.33928573e-02
      4.46428591e-03 1.11607146e-02 2.90178563e-02 6.91964254e-02 0.
      1.78571437e-02 2.00892854e-02 4.46428582e-02 2.00892854e-02
      1.33928573e-02 1.11607146e-02 3.12500000e-02 4.46428591e-03
      3.57142873e-02 2.23214296e-03 2.23214291e-02 1.33928573e-02
      1.33928573e-02 1.33928573e-02 0. 6.69642864e-03 3.57142873e-02
      1.33928573e-02 1.33928573e-02 3.79464291e-02 1.33928573e-02</_>
    <_>
      1.29032256e-02 1.93548389e-02 1.50537631e-02 2.58064512e-02
      6.45161280e-03 1.93548389e-02 1.72043014e-02 2.36559138e-02
      2.58064512e-02 1.29032256e-02 1.50537631e-02 2.36559138e-02
      1.07526882e-02 4.94623668e-02 2.36559138e-02 2.15053768e-03
      2.36559138e-02 5.16129024e-02 1.07526882e-02 8.60215072e-03
      1.72043014e-02 1.29032256e-02 1.50537631e-02 2.79569887e-02
      1.72043014e-02 2.58064512e-02 1.29032256e-02 2.58064512e-02
      1.72043014e-02 1.29032256e-02 1.29032256e-02 2.36559138e-02
      1.93548389e-02 1.72043014e-02 1.07526882e-02 1.29032256e-02
      1.93548389e-02 3.65591384e-02 2.15053763e-02 8.60215072e-03
      6.45161280e-03 2.15053763e-02 4.30107526e-02 8.60215072e-03
      2.58064512e-02 4.94623668e-02 4.30107536e-03 3.87096778e-02
      1.72043014e-02 1.93548389e-02</_>
    <_>
      2.50521917e-02 2.08768272e-03 2.71398742e-02 3.34029235e-02 0.
      1.25260958e-02 4.80167009e-02 4.17536534e-02 2.29645092e-02
      2.08768267e-02 1.04384134e-02 1.87891442e-02 2.50521917e-02
      2.92275567e-02 5.21920659e-02 2.71398742e-02 1.25260958e-02
      3.96659710e-02 1.04384134e-02 1.04384134e-02 6.26304792e-03
      1.87891442e-02 1.67014617e-02 2.08768267e-02 1.04384134e-02
      1.46137783e-02 3.13152410e-02 4.80167009e-02 2.08768272e-03
      3.54906060e-02 1.04384134e-02 2.71398742e-02 2.92275567e-02
      8.35073087e-03 1.87891442e-02 1.87891442e-02 4.17536544e-03
      3.75782885e-02 1.25260958e-02 1.25260958e-02 2.08768272e-03
      1.25260958e-02 2.29645092e-02 8.35073087e-03 1.87891442e-02
      2.08768267e-02 8.35073087e-03 1.25260958e-02 2.50521917e-02
      1.46137783e-02</_>
    <_>
      2.68041231e-02 0. 2.06185561e-02 2.68041231e-02 1.03092780e-02
      1.85567010e-02 4.94845361e-02 4.74226810e-02 2.68041231e-02
      2.06185561e-02 1.64948460e-02 1.44329900e-02 2.06185561e-02
      2.68041231e-02 3.91752571e-02 8.24742299e-03 1.03092780e-02
      1.85567010e-02 2.47422680e-02 1.23711340e-02 8.24742299e-03
      2.26804130e-02 1.03092780e-02 2.26804130e-02 1.64948460e-02
      2.68041231e-02 4.12371121e-02 4.94845361e-02 4.12371149e-03
      8.24742299e-03 2.68041231e-02 2.47422680e-02 1.85567010e-02
      1.03092780e-02 1.03092780e-02 4.12371149e-03 1.44329900e-02
      4.32989709e-02 1.85567010e-02 6.18556701e-03 4.12371149e-03
      2.68041231e-02 1.85567010e-02 4.12371149e-03 1.64948460e-02
      2.06185561e-02 1.44329900e-02 2.06185575e-03 4.32989709e-02
      2.26804130e-02</_>
    <_>
      3.71900834e-02 8.26446246e-03 3.30578499e-02 1.23966942e-02
      1.44628100e-02 1.65289249e-02 2.68595032e-02 1.85950417e-02
      2.68595032e-02 2.89256200e-02 1.03305783e-02 1.44628100e-02
      2.47933883e-02 1.03305783e-02 4.13223132e-02 1.03305783e-02
      6.19834708e-03 4.75206599e-02 1.85950417e-02 3.09917349e-02
      1.03305783e-02 3.92562002e-02 2.47933883e-02 1.85950417e-02
      2.06611566e-02 2.27272734e-02 2.89256200e-02 2.68595032e-02
      1.23966942e-02 1.03305783e-02 2.89256200e-02 2.06611566e-02
      1.23966942e-02 1.03305783e-02 4.13223123e-03 1.44628100e-02
      1.03305783e-02 3.09917349e-02 6.19834708e-03 2.68595032e-02
      2.06611562e-03 2.47933883e-02 2.68595032e-02 8.26446246e-03
      1.44628100e-02 6.19834708e-03 8.26446246e-03 8.26446246e-03
      4.13223132e-02 4.13223132e-02</_>
    <_>
      1.69491526e-02 1.27118640e-02 3.17796618e-02 2.11864412e-02
      4.23728814e-03 2.54237279e-02 4.23728814e-03 1.27118640e-02
      2.75423732e-02 2.54237279e-02 1.48305083e-02 2.11864412e-02
      1.90677959e-02 8.47457629e-03 1.05932206e-02 1.90677959e-02
      4.02542390e-02 1.27118640e-02 4.44915257e-02 2.11864407e-03
      8.47457629e-03 1.90677959e-02 3.81355919e-02 4.23728824e-02
      1.90677959e-02 2.33050846e-02 6.35593198e-03 4.23728814e-03
      6.35593198e-03 1.90677959e-02 1.05932206e-02 2.11864412e-02
      1.69491526e-02 2.54237279e-02 4.87288125e-02 4.02542390e-02
      2.75423732e-02 1.05932206e-02 1.90677959e-02 3.38983051e-02
      6.35593198e-03 2.75423732e-02 1.69491526e-02 6.35593198e-03
      6.35593198e-03 3.60169485e-02 2.11864407e-03 3.38983051e-02
      6.35593198e-03 4.23728824e-02</_>
    <_>
      2.37068962e-02 0. 3.66379321e-02 2.58620698e-02 0. 3.01724132e-02
      1.93965510e-02 3.66379321e-02 4.52586189e-02 1.07758623e-02
      2.58620698e-02 2.15517245e-02 8.62068962e-03 1.07758623e-02
      3.66379321e-02 2.15517241e-03 8.62068962e-03 1.72413792e-02
      2.15517241e-03 1.07758623e-02 1.07758623e-02 5.38793094e-02
      1.50862066e-02 3.66379321e-02 6.46551745e-03 2.37068962e-02
      3.44827585e-02 5.81896566e-02 0. 1.72413792e-02 1.07758623e-02
      3.44827585e-02 3.44827585e-02 1.29310349e-02 8.62068962e-03
      1.07758623e-02 1.50862066e-02 4.09482755e-02 1.50862066e-02
      1.29310349e-02 4.31034481e-03 1.29310349e-02 4.09482755e-02
      4.31034481e-03 2.58620698e-02 2.15517245e-02 6.46551745e-03
      2.15517241e-03 3.44827585e-02 2.15517245e-02</_>
    <_>
      2.65700482e-02 2.41545890e-03 2.65700482e-02 3.62318829e-02
      4.83091781e-03 1.69082116e-02 3.38164233e-02 2.89855078e-02
      1.44927539e-02 1.20772943e-02 3.14009674e-02 1.93236712e-02
      2.17391308e-02 4.34782617e-02 2.89855078e-02 7.24637695e-03
      9.66183562e-03 3.38164233e-02 2.17391308e-02 1.93236712e-02
      4.83091772e-02 2.41545886e-02 9.66183562e-03 1.93236712e-02
      1.93236712e-02 3.62318829e-02 2.17391308e-02 4.10628021e-02
      4.83091781e-03 2.65700482e-02 1.69082116e-02 9.66183562e-03
      2.17391308e-02 7.24637695e-03 2.41545890e-03 1.69082116e-02
      7.24637695e-03 4.58937213e-02 9.66183562e-03 1.93236712e-02
      4.83091781e-03 3.86473425e-02 2.89855078e-02 0. 1.93236712e-02
      1.69082116e-02 4.83091781e-03 7.24637695e-03 1.93236712e-02
      1.20772943e-02</_>
    <_>
      4.15800419e-03 1.45530142e-02 2.07900200e-02 3.74220386e-02
      2.07900209e-03 1.87110193e-02 2.70270277e-02 2.70270277e-02
      1.66320167e-02 1.24740126e-02 1.87110193e-02 2.49480251e-02
      1.87110193e-02 1.45530142e-02 6.23700628e-03 2.49480251e-02
      2.28690226e-02 2.91060284e-02 1.24740126e-02 1.66320167e-02
      2.49480251e-02 2.70270277e-02 2.28690226e-02 3.11850309e-02
      1.66320167e-02 1.66320167e-02 8.31600837e-03 1.66320167e-02
      6.23700628e-03 1.45530142e-02 8.31600837e-03 2.70270277e-02
      4.57380451e-02 3.95010412e-02 2.49480251e-02 2.70270277e-02
      2.28690226e-02 1.45530142e-02 1.03950100e-02 2.07900200e-02
      1.87110193e-02 2.70270277e-02 6.23700628e-03 8.31600837e-03
      2.70270277e-02 4.78170477e-02 8.31600837e-03 1.87110193e-02
      2.28690226e-02 1.87110193e-02</_>
    <_>
      2.66666673e-02 1.11111114e-02 1.33333337e-02 3.33333351e-02
      4.44444455e-03 1.11111114e-02 2.44444441e-02 1.77777782e-02
      3.11111119e-02 1.77777782e-02 1.33333337e-02 1.99999996e-02
      1.33333337e-02 2.66666673e-02 3.33333351e-02 8.88888910e-03
      1.77777782e-02 2.22222228e-02 8.88888910e-03 8.88888910e-03
      1.77777782e-02 2.66666673e-02 2.44444441e-02 1.77777782e-02
      6.66666683e-03 8.88888910e-03 2.88888887e-02 2.44444441e-02
      6.66666683e-03 5.77777773e-02 1.55555559e-02 4.66666669e-02
      2.66666673e-02 1.77777782e-02 1.33333337e-02 1.99999996e-02
      1.33333337e-02 2.44444441e-02 6.66666683e-03 1.55555559e-02 0.
      3.77777778e-02 3.55555564e-02 4.44444455e-03 5.33333346e-02
      2.88888887e-02 1.55555559e-02 1.11111114e-02 2.44444441e-02
      4.44444455e-03</_>
    <_>
      2.06611566e-02 6.19834708e-03 4.95867766e-02 1.85950417e-02 0.
      2.27272734e-02 1.65289249e-02 1.44628100e-02 2.47933883e-02
      1.23966942e-02 4.33884300e-02 2.68595032e-02 2.27272734e-02
      1.23966942e-02 3.71900834e-02 4.13223123e-03 1.23966942e-02
      2.68595032e-02 1.23966942e-02 1.03305783e-02 3.30578499e-02
      2.27272734e-02 1.44628100e-02 2.89256200e-02 2.06611566e-02
      1.03305783e-02 3.09917349e-02 2.68595032e-02 8.26446246e-03
      4.75206599e-02 3.09917349e-02 1.65289249e-02 2.47933883e-02
      1.23966942e-02 1.85950417e-02 1.85950417e-02 6.19834708e-03
      1.85950417e-02 1.03305783e-02 2.89256200e-02 2.06611562e-03
      1.44628100e-02 3.30578499e-02 1.03305783e-02 2.27272734e-02
      2.68595032e-02 4.13223123e-03 1.44628100e-02 2.89256200e-02
      1.85950417e-02</_>
    <_>
      3.60169485e-02 0. 3.17796618e-02 2.96610165e-02 0. 1.05932206e-02
      4.44915257e-02 5.29661030e-02 1.27118640e-02 8.47457629e-03
      4.23728814e-03 4.44915257e-02 1.90677959e-02 1.48305083e-02
      6.99152574e-02 1.05932206e-02 2.54237279e-02 6.35593198e-03
      1.27118640e-02 8.47457629e-03 2.11864407e-03 3.17796618e-02
      2.54237279e-02 1.48305083e-02 0. 8.47457629e-03 1.69491526e-02
      4.23728824e-02 4.23728814e-03 1.69491526e-02 1.69491526e-02
      5.08474559e-02 2.75423732e-02 1.48305083e-02 4.23728814e-03
      2.11864412e-02 1.90677959e-02 2.54237279e-02 1.05932206e-02
      1.90677959e-02 1.27118640e-02 2.33050846e-02 1.69491526e-02 0.
      1.69491526e-02 4.66101691e-02 1.69491526e-02 2.75423732e-02
      1.69491526e-02 6.35593198e-03</_>
    <_>
      3.19148935e-02 0. 1.48936175e-02 2.34042555e-02 2.12765951e-03
      4.25531901e-03 3.19148935e-02 2.55319141e-02 1.06382975e-02
      1.91489365e-02 2.12765951e-02 1.91489365e-02 8.51063803e-03
      4.04255316e-02 4.68085110e-02 2.55319141e-02 1.27659570e-02
      1.91489365e-02 1.70212761e-02 8.51063803e-03 1.48936175e-02
      1.91489365e-02 3.19148935e-02 2.12765951e-02 1.70212761e-02
      2.12765951e-02 1.70212761e-02 3.40425521e-02 1.06382975e-02
      3.61702144e-02 8.51063803e-03 3.40425521e-02 2.55319141e-02
      1.27659570e-02 6.38297852e-03 1.27659570e-02 2.12765951e-02
      4.46808524e-02 1.06382975e-02 8.51063803e-03 8.51063803e-03
      3.19148935e-02 3.82978730e-02 1.27659570e-02 2.12765951e-02
      8.51063803e-03 0. 1.27659570e-02 3.19148935e-02 4.25531901e-02</_>
    <_>
      2.06611566e-02 6.19834708e-03 4.33884300e-02 2.89256200e-02
      2.06611562e-03 2.89256200e-02 2.47933883e-02 2.47933883e-02
      1.65289249e-02 1.85950417e-02 1.65289249e-02 4.33884300e-02
      1.03305783e-02 2.68595032e-02 1.44628100e-02 1.65289249e-02
      2.06611566e-02 2.68595032e-02 2.89256200e-02 2.06611566e-02
      1.23966942e-02 2.06611566e-02 1.44628100e-02 2.27272734e-02
      6.19834708e-03 1.44628100e-02 2.27272734e-02 1.44628100e-02
      6.19834708e-03 3.30578499e-02 6.19834708e-03 3.30578499e-02
      2.27272734e-02 1.44628100e-02 2.27272734e-02 2.06611566e-02
      1.85950417e-02 5.99173568e-02 4.95867766e-02 6.19834708e-03
      6.19834708e-03 2.06611566e-02 1.44628100e-02 4.13223123e-03
      1.03305783e-02 2.68595032e-02 2.06611562e-03 2.27272734e-02
      2.27272734e-02 8.26446246e-03</_>
    <_>
      4.28265519e-03 3.42612416e-02 1.07066380e-02 1.28479656e-02
      2.14132760e-03 8.99357572e-02 1.49892932e-02 2.14132760e-03
      1.92719493e-02 2.99785864e-02 1.28479656e-02 8.56531039e-02
      1.28479656e-02 2.14132760e-03 0. 2.56959312e-02 7.70877972e-02
      2.14132760e-03 1.28479656e-02 0. 8.56531039e-03 1.28479656e-02
      2.35546045e-02 3.42612416e-02 1.28479656e-02 1.07066380e-02
      4.28265519e-03 6.42398279e-03 1.07066380e-02 1.28479656e-02
      1.07066380e-02 2.35546045e-02 3.21199149e-02 2.14132760e-02
      4.71092090e-02 6.42398298e-02 2.56959312e-02 6.42398279e-03
      1.92719493e-02 1.92719493e-02 2.35546045e-02 4.28265519e-03 0.
      4.28265519e-03 1.07066380e-02 1.07066380e-02 8.56531039e-03
      5.56745194e-02 1.28479656e-02 1.07066380e-02</_>
    <_>
      2.07468886e-02 0. 1.86721999e-02 1.86721999e-02 0. 1.65975112e-02
      3.94190885e-02 3.52697112e-02 2.69709546e-02 1.03734443e-02
      2.28215773e-02 2.07468886e-02 6.22406648e-03 8.29875562e-03
      3.52697112e-02 1.65975112e-02 1.65975112e-02 1.65975112e-02
      2.07468886e-02 2.07468891e-03 2.90456433e-02 3.11203320e-02
      2.69709546e-02 1.24481330e-02 2.90456433e-02 1.86721999e-02
      2.48962659e-02 3.52697112e-02 1.65975112e-02 3.11203320e-02
      1.65975112e-02 2.07468886e-02 2.07468886e-02 2.48962659e-02
      2.28215773e-02 1.24481330e-02 1.86721999e-02 1.24481330e-02
      2.07468886e-02 2.69709546e-02 4.14937781e-03 1.86721999e-02
      1.86721999e-02 8.29875562e-03 2.69709546e-02 4.14937772e-02
      1.65975112e-02 2.07468891e-03 3.52697112e-02 2.28215773e-02</_>
    <_>
      1.05042020e-02 2.10084040e-02 3.36134471e-02 1.89075638e-02
      1.26050422e-02 8.40336177e-03 1.47058824e-02 1.89075638e-02
      2.10084040e-02 1.26050422e-02 4.20168079e-02 2.31092442e-02
      1.89075638e-02 2.52100844e-02 1.68067235e-02 4.20168089e-03
      6.30252110e-03 2.94117648e-02 8.40336177e-03 1.89075638e-02
      2.94117648e-02 1.05042020e-02 4.20168079e-02 2.31092442e-02
      1.68067235e-02 3.36134471e-02 4.20168079e-02 1.47058824e-02
      2.10084044e-03 1.89075638e-02 6.30252110e-03 3.15126069e-02
      4.20168079e-02 2.10084044e-03 1.47058824e-02 1.47058824e-02
      1.47058824e-02 3.15126069e-02 1.89075638e-02 2.73109246e-02
      6.30252110e-03 2.94117648e-02 1.26050422e-02 1.68067235e-02
      1.89075638e-02 2.73109246e-02 4.20168089e-03 1.26050422e-02
      3.78151275e-02 3.15126069e-02</_>
    <_>
      2.48447210e-02 1.24223605e-02 2.07039341e-02 2.48447210e-02
      1.24223605e-02 3.10559012e-02 3.93374749e-02 1.03519671e-02
      1.86335407e-02 1.24223605e-02 2.69151144e-02 2.48447210e-02
      2.48447210e-02 2.27743275e-02 1.86335407e-02 8.28157365e-03
      1.24223605e-02 1.86335407e-02 1.86335407e-02 2.48447210e-02
      1.24223605e-02 3.31262946e-02 2.27743275e-02 3.51966880e-02
      1.24223605e-02 3.31262946e-02 2.07039341e-02 2.07039341e-02
      1.65631473e-02 1.86335407e-02 1.86335407e-02 1.65631473e-02
      1.65631473e-02 2.07039341e-02 6.21118024e-03 2.07039341e-02
      8.28157365e-03 1.44927539e-02 1.24223605e-02 1.24223605e-02
      8.28157365e-03 4.14078683e-02 3.93374749e-02 6.21118024e-03
      2.69151144e-02 2.89855078e-02 2.27743275e-02 0. 2.07039341e-02
      2.48447210e-02</_>
    <_>
      2.48962659e-02 1.24481330e-02 8.29875562e-03 2.69709546e-02
      4.14937781e-03 1.03734443e-02 3.52697112e-02 3.73443998e-02
      2.48962659e-02 8.29875562e-03 1.03734443e-02 1.65975112e-02
      2.48962659e-02 3.94190885e-02 3.94190885e-02 1.03734443e-02
      2.07468891e-03 8.29875562e-03 0. 2.07468891e-03 1.86721999e-02
      4.14937772e-02 4.14937772e-02 2.07468886e-02 2.28215773e-02
      2.28215773e-02 2.48962659e-02 3.31950225e-02 2.07468891e-03
      4.14937772e-02 2.07468886e-02 3.31950225e-02 2.28215773e-02
      1.86721999e-02 1.03734443e-02 3.31950225e-02 1.03734443e-02
      3.31950225e-02 6.22406648e-03 3.11203320e-02 1.86721999e-02
      1.24481330e-02 2.90456433e-02 2.07468891e-03 1.65975112e-02
      1.65975112e-02 1.03734443e-02 1.03734443e-02 3.11203320e-02
      1.65975112e-02</_>
    <_>
      3.91705073e-02 4.60829493e-03 1.38248848e-02 2.99539175e-02
      1.84331797e-02 3.45622115e-02 3.68663594e-02 3.22580636e-02
      1.15207378e-02 1.15207378e-02 2.53456216e-02 5.29953912e-02
      4.60829493e-03 2.30414756e-02 4.60829511e-02 2.30414746e-03
      2.76497696e-02 6.91244239e-03 1.15207378e-02 2.07373276e-02
      4.60829493e-03 1.84331797e-02 3.91705073e-02 2.30414756e-02
      1.61290318e-02 2.07373276e-02 1.84331797e-02 4.37788032e-02
      2.30414746e-03 2.76497696e-02 4.60829493e-03 6.91244239e-03
      3.45622115e-02 1.61290318e-02 1.38248848e-02 2.76497696e-02
      3.22580636e-02 2.07373276e-02 1.84331797e-02 2.07373276e-02
      4.60829493e-03 4.60829493e-03 9.21658985e-03 6.91244239e-03
      2.30414746e-03 1.84331797e-02 1.84331797e-02 4.37788032e-02
      1.38248848e-02 1.38248848e-02</_>
    <_>
      3.46232168e-02 2.03665998e-03 1.22199589e-02 2.85132378e-02
      2.03665998e-03 8.14663991e-03 1.42566189e-02 1.83299389e-02
      2.03665979e-02 3.25865597e-02 2.44399179e-02 1.83299389e-02
      1.01832990e-02 8.14663991e-03 1.22199589e-02 2.03665979e-02
      3.86965387e-02 4.07331958e-02 1.83299389e-02 1.83299389e-02
      2.03665979e-02 3.86965387e-02 1.42566189e-02 2.85132378e-02
      1.22199589e-02 1.62932798e-02 1.62932798e-02 3.46232168e-02
      2.03665998e-03 2.24032588e-02 4.27698568e-02 3.25865597e-02
      2.24032588e-02 1.83299389e-02 1.42566189e-02 1.01832990e-02
      8.14663991e-03 2.03665979e-02 1.42566189e-02 3.46232168e-02
      1.83299389e-02 1.22199589e-02 2.24032588e-02 2.03665998e-03
      2.85132378e-02 3.86965387e-02 1.01832990e-02 1.62932798e-02
      2.03665979e-02 2.44399179e-02</_>
    <_>
      4.56431545e-02 0. 2.69709546e-02 2.90456433e-02 2.07468891e-03
      2.07468886e-02 6.63900450e-02 3.52697112e-02 2.90456433e-02
      1.65975112e-02 1.03734443e-02 8.29875562e-03 8.29875562e-03
      1.24481330e-02 2.28215773e-02 2.69709546e-02 4.14937781e-03
      1.65975112e-02 1.03734443e-02 8.29875562e-03 1.86721999e-02
      3.73443998e-02 1.24481330e-02 2.69709546e-02 1.03734443e-02
      2.69709546e-02 2.48962659e-02 2.28215773e-02 0. 2.48962659e-02
      1.86721999e-02 2.69709546e-02 2.28215773e-02 2.48962659e-02
      1.03734443e-02 2.48962659e-02 1.24481330e-02 3.52697112e-02
      1.24481330e-02 1.45228216e-02 1.45228216e-02 2.07468886e-02
      2.07468886e-02 1.03734443e-02 2.90456433e-02 1.86721999e-02
      2.90456433e-02 6.22406648e-03 3.52697112e-02 6.22406648e-03</_>
    <_>
      9.02934559e-03 1.35440184e-02 1.58013552e-02 1.58013552e-02 0.
      1.12866815e-02 4.74040620e-02 4.74040620e-02 2.03160271e-02
      1.35440184e-02 2.70880368e-02 1.58013552e-02 2.03160271e-02
      4.51467279e-03 2.25733630e-02 2.25733640e-03 9.02934559e-03
      2.48306990e-02 1.35440184e-02 2.03160271e-02 3.83747183e-02
      2.48306990e-02 3.16027105e-02 2.48306990e-02 1.35440184e-02
      2.25733630e-02 2.03160271e-02 2.48306990e-02 1.35440184e-02
      2.48306990e-02 1.58013552e-02 3.16027105e-02 3.61173823e-02
      2.03160271e-02 1.12866815e-02 1.58013552e-02 2.25733640e-03
      3.16027105e-02 2.48306990e-02 1.80586912e-02 2.25733640e-03
      4.28893901e-02 9.02934559e-03 1.58013552e-02 1.80586912e-02
      2.03160271e-02 2.25733630e-02 2.48306990e-02 3.61173823e-02
      6.77200919e-03</_>
    <_>
      2.43902430e-02 8.13008100e-03 2.23577227e-02 2.43902430e-02
      1.42276427e-02 2.23577227e-02 2.03252025e-02 1.21951215e-02
      3.25203240e-02 1.62601620e-02 1.42276427e-02 2.64227651e-02
      2.03252025e-03 5.69105707e-02 2.03252025e-02 8.13008100e-03
      4.47154455e-02 1.21951215e-02 3.04878056e-02 1.21951215e-02
      1.62601620e-02 1.62601620e-02 2.64227651e-02 2.23577227e-02
      8.13008100e-03 1.82926822e-02 1.42276427e-02 2.03252025e-02
      1.42276427e-02 1.62601620e-02 2.03252025e-03 1.82926822e-02
      2.43902430e-02 3.65853645e-02 3.86178866e-02 1.62601620e-02
      4.26829271e-02 2.23577227e-02 1.01626012e-02 2.23577227e-02
      6.09756075e-03 2.84552854e-02 2.03252025e-02 2.23577227e-02
      1.42276427e-02 1.62601620e-02 6.09756075e-03 4.06504050e-02
      1.01626012e-02 4.06504050e-03</_>
    <_>
      2.79069766e-02 1.86046511e-02 2.55813953e-02 2.55813953e-02
      4.65116277e-03 1.39534883e-02 1.86046511e-02 3.25581394e-02
      3.02325580e-02 1.86046511e-02 2.09302325e-02 1.86046511e-02
      2.09302325e-02 3.25581394e-02 1.39534883e-02 9.30232555e-03
      1.62790697e-02 3.95348854e-02 1.16279069e-02 3.72093022e-02
      6.97674416e-03 2.09302325e-02 2.79069766e-02 1.39534883e-02
      6.97674416e-03 4.65116277e-03 3.02325580e-02 4.41860482e-02
      9.30232555e-03 1.86046511e-02 3.25581394e-02 3.02325580e-02
      3.48837227e-02 9.30232555e-03 1.62790697e-02 2.09302325e-02
      9.30232555e-03 1.62790697e-02 3.72093022e-02 1.62790697e-02 0.
      3.25581394e-02 3.02325580e-02 4.65116277e-03 1.16279069e-02
      1.86046511e-02 4.65116277e-03 9.30232555e-03 2.55813953e-02
      1.86046511e-02</_>
    <_>
      1.86335407e-02 2.07039341e-02 1.44927539e-02 4.55486551e-02
      8.28157365e-03 1.03519671e-02 1.44927539e-02 8.28157365e-03
      4.55486551e-02 1.03519671e-02 3.72670814e-02 2.69151144e-02
      6.21118024e-03 8.28157365e-03 1.03519671e-02 1.24223605e-02
      1.65631473e-02 1.44927539e-02 8.28157365e-03 1.65631473e-02
      2.27743275e-02 1.65631473e-02 3.10559012e-02 3.10559012e-02
      1.24223605e-02 2.27743275e-02 2.27743275e-02 2.48447210e-02
      2.27743275e-02 3.51966880e-02 2.07039341e-02 3.93374749e-02
      3.10559012e-02 1.44927539e-02 3.72670814e-02 2.27743275e-02
      2.07039341e-02 2.27743275e-02 2.27743275e-02 1.03519671e-02
      2.07039341e-03 2.27743275e-02 3.10559012e-02 2.07039341e-02
      8.28157365e-03 8.28157365e-03 1.65631473e-02 1.44927539e-02
      4.14078683e-03 3.31262946e-02</_>
    <_>
      6.50759228e-03 4.33839485e-02 6.50759228e-03 1.95227768e-02
      2.16919743e-03 6.07375279e-02 0. 2.16919743e-03 1.30151846e-02
      4.33839485e-03 1.08459871e-02 3.90455537e-02 1.30151846e-02
      4.33839485e-03 4.33839485e-03 2.60303691e-02 9.97830778e-02
      2.16919743e-03 1.51843820e-02 2.16919743e-03 2.16919743e-03
      3.03687640e-02 1.95227768e-02 2.38611717e-02 1.30151846e-02
      8.67678970e-03 8.67678970e-03 6.50759228e-03 4.33839485e-03
      1.51843820e-02 2.16919743e-03 6.29067272e-02 3.03687640e-02
      2.60303691e-02 4.55531441e-02 8.24294984e-02 3.03687640e-02
      4.33839485e-03 1.08459871e-02 1.73535794e-02 6.94143176e-02
      2.60303691e-02 0. 0. 8.67678970e-03 8.67678970e-03 6.50759228e-03
      5.42299338e-02 2.16919743e-03 4.33839485e-03</_>
    <_>
      2.63691675e-02 6.08519278e-03 2.63691675e-02 1.01419883e-02 0.
      1.21703856e-02 3.44827585e-02 3.04259639e-02 4.46247458e-02
      1.21703856e-02 1.01419883e-02 6.08519278e-03 2.23123729e-02
      2.23123729e-02 2.83975657e-02 4.05679503e-03 8.11359007e-03
      2.23123729e-02 1.01419883e-02 2.43407711e-02 2.63691675e-02
      3.44827585e-02 2.02839766e-02 6.08519278e-03 4.05679503e-03
      1.62271801e-02 4.25963476e-02 1.62271801e-02 2.02839752e-03
      3.44827585e-02 3.85395549e-02 2.63691675e-02 1.62271801e-02
      8.11359007e-03 4.05679503e-03 1.21703856e-02 6.08519278e-03
      4.46247458e-02 1.62271801e-02 4.05679531e-02 6.08519278e-03
      3.65111567e-02 2.23123729e-02 8.11359007e-03 2.63691675e-02
      3.44827585e-02 2.43407711e-02 1.01419883e-02 4.46247458e-02
      1.01419883e-02</_>
    <_>
      1.86335407e-02 1.03519671e-02 2.48447210e-02 1.65631473e-02
      8.28157365e-03 2.48447210e-02 1.65631473e-02 4.55486551e-02
      2.07039341e-02 1.65631473e-02 2.27743275e-02 8.28157365e-03
      2.27743275e-02 1.86335407e-02 6.21118024e-03 1.86335407e-02
      3.72670814e-02 2.48447210e-02 3.31262946e-02 1.24223605e-02
      8.28157365e-03 3.31262946e-02 3.31262946e-02 8.28157365e-03
      2.48447210e-02 1.65631473e-02 2.27743275e-02 2.27743275e-02
      1.24223605e-02 1.44927539e-02 8.28157365e-03 2.69151144e-02
      1.86335407e-02 1.65631473e-02 1.44927539e-02 1.03519671e-02
      2.69151144e-02 3.31262946e-02 1.44927539e-02 2.69151144e-02
      2.27743275e-02 2.69151144e-02 8.28157365e-03 1.24223605e-02
      3.72670814e-02 3.93374749e-02 6.21118024e-03 2.07039341e-03
      2.07039341e-02 2.27743275e-02</_>
    <_>
      6.38297852e-03 2.12765951e-02 1.70212761e-02 8.51063803e-03
      4.25531901e-03 6.38297871e-02 8.51063803e-03 0. 3.40425521e-02
      1.91489365e-02 1.70212761e-02 3.82978730e-02 1.48936175e-02 0. 0.
      1.06382975e-02 6.80851042e-02 1.27659570e-02 1.70212761e-02
      4.25531901e-03 6.38297852e-03 4.04255316e-02 2.97872350e-02
      3.61702144e-02 2.97872350e-02 1.70212761e-02 4.25531901e-03 0.
      4.25531901e-03 2.76595745e-02 1.06382975e-02 2.34042555e-02
      8.51063803e-03 3.40425521e-02 1.70212761e-02 2.97872350e-02
      4.04255316e-02 0. 2.34042555e-02 2.34042555e-02 7.23404288e-02
      1.70212761e-02 6.38297852e-03 1.70212761e-02 1.70212761e-02
      2.12765951e-02 2.12765951e-03 3.40425521e-02 8.51063803e-03
      3.19148935e-02</_>
    <_>
      3.51648368e-02 6.59340667e-03 2.63736267e-02 1.09890113e-02
      2.19780230e-03 8.79120920e-03 1.31868133e-02 8.79120920e-03
      2.41758246e-02 5.05494513e-02 8.79120920e-03 1.53846154e-02
      3.73626389e-02 1.97802205e-02 1.53846154e-02 2.41758246e-02
      3.07692308e-02 1.53846154e-02 3.29670347e-02 1.09890113e-02
      6.59340667e-03 2.19780225e-02 6.59340667e-03 1.09890113e-02
      4.39560451e-02 4.39560451e-02 1.53846154e-02 1.31868133e-02
      1.97802205e-02 1.09890113e-02 1.31868133e-02 2.63736267e-02
      1.53846154e-02 2.41758246e-02 6.59340667e-03 1.09890113e-02
      1.53846154e-02 1.97802205e-02 2.63736267e-02 3.51648368e-02
      8.79120920e-03 4.17582430e-02 3.51648368e-02 1.31868133e-02
      2.63736267e-02 2.41758246e-02 1.53846154e-02 8.79120920e-03
      1.09890113e-02 3.07692308e-02</_>
    <_>
      1.33928573e-02 3.12500000e-02 3.57142873e-02 3.34821418e-02
      6.69642864e-03 5.35714291e-02 0. 8.92857183e-03 1.56250000e-02
      1.56250000e-02 1.33928573e-02 1.33928573e-02 2.90178563e-02
      1.78571437e-02 1.33928573e-02 1.33928573e-02 4.01785709e-02
      8.92857183e-03 5.58035709e-02 6.69642864e-03 8.92857183e-03
      1.78571437e-02 4.01785709e-02 2.23214291e-02 1.33928573e-02
      1.33928573e-02 6.69642864e-03 8.92857183e-03 1.56250000e-02
      1.33928573e-02 8.92857183e-03 2.00892854e-02 6.69642864e-03
      1.33928573e-02 1.78571437e-02 1.11607146e-02 5.80357127e-02
      6.69642864e-03 2.23214291e-02 2.90178563e-02 2.23214291e-02
      8.92857183e-03 2.67857146e-02 1.78571437e-02 6.69642864e-03
      5.58035709e-02 8.92857183e-03 4.46428582e-02 6.69642864e-03
      2.00892854e-02</_>
    <_>
      3.27868834e-02 8.19672085e-03 1.63934417e-02 1.63934417e-02 0.
      2.25409828e-02 1.02459015e-02 1.02459015e-02 4.09836043e-03
      1.02459015e-02 3.07377055e-02 1.63934417e-02 2.45901644e-02
      1.84426233e-02 1.63934417e-02 2.66393442e-02 2.04918031e-02
      2.04918031e-02 3.68852466e-02 3.07377055e-02 2.45901644e-02
      2.86885239e-02 3.27868834e-02 2.86885239e-02 3.27868834e-02
      2.66393442e-02 1.22950822e-02 1.63934417e-02 1.43442620e-02
      6.14754111e-03 1.43442620e-02 2.45901644e-02 1.02459015e-02
      3.68852466e-02 1.84426233e-02 2.45901644e-02 3.07377055e-02
      6.14754111e-03 1.63934417e-02 1.02459015e-02 1.63934417e-02
      1.84426233e-02 2.86885239e-02 2.04918021e-03 2.25409828e-02
      5.73770478e-02 1.22950822e-02 2.66393442e-02 1.43442620e-02
      1.22950822e-02</_>
    <_>
      4.16666688e-03 1.25000002e-02 1.87500007e-02 1.45833334e-02
      1.04166670e-02 5.00000007e-02 1.04166670e-02 1.04166670e-02 0.
      3.12500000e-02 1.66666675e-02 1.25000002e-02 1.45833334e-02
      1.66666675e-02 1.04166670e-02 1.87500007e-02 3.33333351e-02
      2.50000004e-02 5.00000007e-02 1.66666675e-02 4.79166657e-02
      2.29166672e-02 1.66666675e-02 2.50000004e-02 2.29166672e-02
      1.45833334e-02 1.66666675e-02 1.25000002e-02 1.66666675e-02
      1.25000002e-02 1.04166670e-02 4.16666679e-02 1.66666675e-02
      3.33333351e-02 2.70833336e-02 4.16666688e-03 4.79166657e-02
      1.04166670e-02 3.33333351e-02 1.87500007e-02 1.87500007e-02
      2.29166672e-02 1.04166670e-02 2.29166672e-02 1.87500007e-02
      2.08333340e-02 2.08333344e-03 2.29166672e-02 1.25000002e-02
      1.87500007e-02</_>
    <_>
      2.37580985e-02 1.07991360e-02 2.37580985e-02 1.72786172e-02
      4.31965431e-03 1.07991360e-02 1.07991360e-02 1.51187908e-02
      2.15982720e-02 2.15982720e-02 8.63930862e-03 4.31965431e-03
      2.37580985e-02 1.72786172e-02 4.31965441e-02 1.07991360e-02
      4.10367176e-02 8.63930862e-03 1.51187908e-02 1.29589634e-02
      1.07991360e-02 1.94384456e-02 6.91144690e-02 6.47948170e-03
      2.59179268e-02 2.15982720e-02 4.31965431e-03 2.59179268e-02
      2.37580985e-02 2.15982720e-02 8.63930862e-03 3.88768911e-02
      2.80777533e-02 3.23974080e-02 1.29589634e-02 1.51187908e-02
      5.61555065e-02 2.15982720e-02 1.29589634e-02 2.37580985e-02
      4.31965431e-03 3.23974080e-02 2.37580985e-02 4.31965431e-03
      2.15982720e-02 8.63930862e-03 1.29589634e-02 3.02375816e-02
      1.72786172e-02 1.94384456e-02</_>
    <_>
      8.31600837e-03 1.24740126e-02 2.70270277e-02 3.11850309e-02
      8.31600837e-03 4.57380451e-02 2.07900209e-03 1.66320167e-02
      6.23700628e-03 2.49480251e-02 1.87110193e-02 2.07900200e-02
      1.66320167e-02 3.32640335e-02 2.49480251e-02 2.70270277e-02
      2.70270277e-02 1.66320167e-02 5.82120568e-02 1.24740126e-02 0.
      2.91060284e-02 2.70270277e-02 2.49480251e-02 3.11850309e-02
      6.23700628e-03 8.31600837e-03 1.66320167e-02 3.95010412e-02
      2.28690226e-02 1.45530142e-02 2.49480251e-02 8.31600837e-03
      1.24740126e-02 2.07900200e-02 1.87110193e-02 2.07900200e-02
      2.07900200e-02 1.24740126e-02 2.70270277e-02 1.24740126e-02
      1.66320167e-02 3.95010412e-02 2.49480251e-02 4.15800419e-03
      3.32640335e-02 0. 1.45530142e-02 8.31600837e-03 2.07900200e-02</_>
    <_>
      2.06611566e-02 4.13223123e-03 2.47933883e-02 1.44628100e-02
      1.85950417e-02 1.85950417e-02 1.85950417e-02 1.85950417e-02
      1.65289249e-02 2.89256200e-02 8.26446246e-03 1.03305783e-02
      1.23966942e-02 2.89256200e-02 2.47933883e-02 1.23966942e-02
      2.06611566e-02 4.95867766e-02 4.54545468e-02 1.23966942e-02
      1.23966942e-02 2.89256200e-02 5.99173568e-02 2.27272734e-02
      2.68595032e-02 4.13223123e-03 2.68595032e-02 2.47933883e-02
      1.23966942e-02 2.68595032e-02 1.23966942e-02 4.95867766e-02
      1.44628100e-02 1.03305783e-02 4.13223123e-03 4.13223123e-03
      4.13223132e-02 1.23966942e-02 6.19834708e-03 2.47933883e-02
      8.26446246e-03 2.68595032e-02 1.44628100e-02 6.19834708e-03
      1.44628100e-02 3.71900834e-02 4.13223123e-03 1.23966942e-02
      3.51239666e-02 6.19834708e-03</_>
    <_>
      2.07468886e-02 4.14937781e-03 2.69709546e-02 2.90456433e-02
      6.22406648e-03 1.45228216e-02 2.28215773e-02 1.03734443e-02
      1.24481330e-02 3.11203320e-02 1.86721999e-02 2.28215773e-02
      2.28215773e-02 6.63900450e-02 3.73443998e-02 1.24481330e-02
      1.03734443e-02 2.69709546e-02 2.69709546e-02 1.24481330e-02
      1.03734443e-02 3.52697112e-02 2.28215773e-02 1.24481330e-02
      2.90456433e-02 2.28215773e-02 6.22406648e-03 1.45228216e-02 0.
      2.28215773e-02 1.86721999e-02 3.11203320e-02 8.29875562e-03
      1.86721999e-02 2.07468886e-02 4.14937781e-03 2.07468886e-02
      2.28215773e-02 1.45228216e-02 1.03734443e-02 1.65975112e-02
      3.73443998e-02 2.07468886e-02 8.29875562e-03 2.48962659e-02
      3.52697112e-02 1.45228216e-02 2.69709546e-02 1.65975112e-02
      1.65975112e-02</_>
    <_>
      6.13496918e-03 4.08997945e-03 1.84049085e-02 2.45398767e-02
      2.04498973e-03 2.45398767e-02 8.17995891e-03 8.17995891e-03
      2.04498973e-02 2.45398767e-02 1.22699384e-02 2.65848674e-02
      2.45398767e-02 1.02249486e-02 4.08997945e-03 1.63599178e-02
      2.24948879e-02 8.17995891e-03 3.06748468e-02 2.04498973e-03
      1.22699384e-02 4.70347665e-02 3.06748468e-02 3.06748468e-02
      2.45398767e-02 4.29447852e-02 6.13496918e-03 0. 1.22699384e-02
      2.24948879e-02 1.22699384e-02 3.88548039e-02 2.65848674e-02
      2.04498973e-02 3.06748468e-02 1.22699384e-02 7.36196339e-02
      2.04498973e-03 3.68098170e-02 2.24948879e-02 2.65848674e-02
      2.04498973e-02 1.84049085e-02 1.22699384e-02 2.86298562e-02
      4.08997945e-02 0. 1.63599178e-02 1.22699384e-02 2.04498973e-02</_>
    <_>
      8.45665950e-03 0. 2.95983087e-02 1.05708241e-02 8.45665950e-03
      4.86257933e-02 1.05708241e-02 1.05708241e-02 1.90274846e-02
      1.69133190e-02 2.11416483e-02 1.69133190e-02 2.32558139e-02
      2.32558139e-02 6.34249486e-03 1.05708241e-02 6.97674453e-02
      2.32558139e-02 4.86257933e-02 2.11416488e-03 1.47991544e-02
      4.01691347e-02 3.59408036e-02 1.69133190e-02 1.47991544e-02
      8.45665950e-03 1.05708241e-02 1.69133190e-02 1.26849897e-02
      1.05708241e-02 6.34249486e-03 1.90274846e-02 2.11416483e-02
      2.11416483e-02 1.47991544e-02 1.90274846e-02 4.86257933e-02
      8.45665950e-03 2.74841432e-02 1.05708241e-02 2.32558139e-02
      2.11416483e-02 2.32558139e-02 3.38266380e-02 8.45665950e-03
      5.49682863e-02 6.34249486e-03 2.53699794e-02 2.11416488e-03
      1.47991544e-02</_>
    <_>
      2.51046028e-02 1.04602510e-02 3.13807540e-02 2.30125524e-02
      2.09205016e-03 2.30125524e-02 8.36820062e-03 2.09205016e-03
      2.30125524e-02 2.30125524e-02 8.36820062e-03 1.67364012e-02
      1.04602510e-02 8.36820062e-03 1.88284516e-02 1.67364012e-02
      2.92887036e-02 1.67364012e-02 4.39330526e-02 8.36820062e-03
      4.18410031e-03 2.71966532e-02 2.92887036e-02 1.67364012e-02
      3.13807540e-02 4.39330526e-02 1.67364012e-02 6.27615070e-03
      2.09205020e-02 8.36820062e-03 2.92887036e-02 3.76569033e-02
      2.71966532e-02 3.76569033e-02 2.30125524e-02 1.88284516e-02
      1.67364012e-02 8.36820062e-03 1.46443518e-02 2.51046028e-02
      1.46443518e-02 4.18410040e-02 2.71966532e-02 1.25523014e-02
      2.09205020e-02 3.34728025e-02 0. 8.36820062e-03 1.25523014e-02
      3.55648547e-02</_>
    <_>
      1.43149281e-02 6.13496918e-03 1.84049085e-02 1.63599178e-02
      4.08997945e-03 3.06748468e-02 1.63599178e-02 1.84049085e-02
      1.22699384e-02 3.27198356e-02 4.29447852e-02 3.27198356e-02
      2.04498973e-02 2.65848674e-02 2.04498973e-02 1.43149281e-02
      3.47648263e-02 2.04498973e-02 3.06748468e-02 2.04498973e-02
      6.13496918e-03 1.84049085e-02 3.06748468e-02 2.24948879e-02
      2.24948879e-02 1.63599178e-02 8.17995891e-03 1.63599178e-02 0.
      2.45398767e-02 1.02249486e-02 2.86298562e-02 3.47648263e-02
      2.45398767e-02 2.04498973e-02 8.17995891e-03 1.84049085e-02
      2.04498973e-02 1.84049085e-02 1.84049085e-02 1.22699384e-02
      2.04498973e-02 1.63599178e-02 2.04498973e-02 1.63599178e-02
      3.27198356e-02 6.13496918e-03 3.68098170e-02 2.65848674e-02
      1.02249486e-02</_>
    <_>
      1.02459015e-02 6.14754111e-03 1.02459015e-02 3.48360650e-02
      1.84426233e-02 4.30327877e-02 1.02459015e-02 2.45901644e-02
      1.43442620e-02 2.86885239e-02 2.45901644e-02 4.09836043e-03
      1.22950822e-02 2.45901644e-02 3.07377055e-02 1.02459015e-02
      4.71311472e-02 1.43442620e-02 1.22950822e-02 8.19672085e-03
      1.63934417e-02 1.43442620e-02 2.04918031e-02 1.63934417e-02
      2.66393442e-02 3.27868834e-02 2.25409828e-02 1.63934417e-02
      2.04918031e-02 1.84426233e-02 1.02459015e-02 6.14754111e-03
      1.43442620e-02 2.25409828e-02 2.25409828e-02 1.22950822e-02
      3.07377055e-02 1.63934417e-02 2.04918031e-02 6.14754111e-03
      2.04918021e-03 1.63934417e-02 2.86885239e-02 4.30327877e-02
      3.27868834e-02 2.45901644e-02 8.19672085e-03 3.89344245e-02
      1.22950822e-02 3.68852466e-02</_>
    <_>
      7.71208247e-03 1.02827763e-02 2.05655526e-02 3.08483299e-02 0.
      2.31362469e-02 1.79948583e-02 1.02827763e-02 1.28534706e-02
      1.79948583e-02 5.14138825e-02 7.71208247e-03 3.59897166e-02
      1.54241649e-02 1.79948583e-02 2.05655526e-02 1.02827763e-02
      4.62724939e-02 1.02827763e-02 4.11311053e-02 4.11311053e-02
      2.05655526e-02 1.54241649e-02 1.02827763e-02 1.02827763e-02
      3.85604128e-02 2.31362469e-02 3.59897166e-02 1.54241649e-02
      1.79948583e-02 3.85604128e-02 1.02827763e-02 1.54241649e-02
      5.14138816e-03 2.57069413e-02 5.14138816e-03 7.71208247e-03
      3.08483299e-02 3.08483299e-02 1.02827763e-02 0. 2.05655526e-02
      1.79948583e-02 1.02827763e-02 2.57069413e-02 3.34190242e-02
      7.71208247e-03 2.82776356e-02 1.28534706e-02 2.57069413e-02</_>
    <_>
      5.05050505e-03 2.52525252e-03 2.27272734e-02 7.57575780e-03
      2.52525252e-03 4.79797982e-02 1.01010101e-02 2.52525252e-03
      2.52525248e-02 3.03030312e-02 1.76767670e-02 2.52525248e-02
      1.76767670e-02 7.57575780e-03 0. 2.77777780e-02 6.81818202e-02
      1.01010101e-02 1.51515156e-02 0. 2.77777780e-02 1.76767670e-02
      2.52525248e-02 2.52525248e-02 3.03030312e-02 3.28282826e-02
      1.01010101e-02 2.52525252e-03 1.76767670e-02 1.76767670e-02
      1.26262624e-02 2.77777780e-02 1.51515156e-02 2.02020202e-02
      3.28282826e-02 3.28282826e-02 4.79797982e-02 2.52525252e-03
      2.02020202e-02 2.02020202e-02 3.03030312e-02 2.52525248e-02
      1.26262624e-02 2.02020202e-02 1.01010101e-02 2.27272734e-02
      2.52525252e-03 5.30303046e-02 7.57575780e-03 3.03030312e-02</_>
    <_>
      1.24481330e-02 6.22406648e-03 3.52697112e-02 2.90456433e-02
      2.07468891e-03 2.69709546e-02 2.07468886e-02 1.45228216e-02
      2.69709546e-02 2.69709546e-02 2.28215773e-02 8.29875562e-03
      1.86721999e-02 2.48962659e-02 1.86721999e-02 6.22406648e-03
      1.86721999e-02 2.69709546e-02 2.28215773e-02 1.45228216e-02
      1.86721999e-02 4.14937772e-02 2.90456433e-02 2.07468886e-02
      1.65975112e-02 2.48962659e-02 2.28215773e-02 3.11203320e-02
      4.14937781e-03 1.24481330e-02 1.86721999e-02 4.14937772e-02
      1.86721999e-02 2.28215773e-02 1.45228216e-02 1.86721999e-02
      1.65975112e-02 1.03734443e-02 2.90456433e-02 2.28215773e-02 0.
      3.11203320e-02 1.86721999e-02 8.29875562e-03 2.48962659e-02
      2.69709546e-02 1.45228216e-02 1.45228216e-02 1.65975112e-02
      2.48962659e-02</_>
    <_>
      1.14678899e-02 9.17431153e-03 2.75229365e-02 3.66972461e-02
      1.14678899e-02 2.29357788e-03 2.75229365e-02 2.98165139e-02
      1.37614682e-02 9.17431153e-03 1.60550456e-02 1.14678899e-02
      3.21100913e-02 3.66972461e-02 2.29357798e-02 1.14678899e-02
      1.60550456e-02 2.29357798e-02 1.14678899e-02 4.58715577e-03
      4.58715577e-03 2.29357798e-02 1.83486231e-02 1.60550456e-02
      5.50458729e-02 3.66972461e-02 1.37614682e-02 2.29357798e-02
      9.17431153e-03 3.44036706e-02 1.37614682e-02 1.83486231e-02
      2.06422023e-02 2.06422023e-02 1.14678899e-02 1.37614682e-02
      2.52293572e-02 2.98165139e-02 1.60550456e-02 2.52293572e-02
      1.37614682e-02 2.75229365e-02 2.52293572e-02 1.37614682e-02
      2.98165139e-02 1.83486231e-02 1.14678899e-02 9.17431153e-03
      2.52293572e-02 3.21100913e-02</_>
    <_>
      1.29032256e-02 6.45161280e-03 1.29032256e-02 1.07526882e-02
      8.60215072e-03 3.01075261e-02 2.15053768e-03 1.29032256e-02
      2.36559138e-02 2.58064512e-02 1.72043014e-02 6.45161280e-03
      2.36559138e-02 4.51612920e-02 1.07526882e-02 1.29032256e-02
      6.02150522e-02 1.07526882e-02 6.02150522e-02 2.15053763e-02
      1.72043014e-02 1.07526882e-02 2.58064512e-02 1.72043014e-02
      3.44086029e-02 1.72043014e-02 1.93548389e-02 1.50537631e-02
      1.29032256e-02 4.30107536e-03 2.15053768e-03 1.72043014e-02
      1.07526882e-02 1.93548389e-02 1.93548389e-02 1.29032256e-02
      2.79569887e-02 6.45161280e-03 2.79569887e-02 6.45161280e-03
      2.58064512e-02 3.65591384e-02 2.36559138e-02 3.44086029e-02
      1.29032256e-02 2.58064512e-02 4.30107536e-03 4.30107526e-02
      3.01075261e-02 2.36559138e-02</_>
    <_>
      1.32450331e-02 2.20750552e-03 2.64900662e-02 4.41501103e-02
      6.62251655e-03 4.41501103e-02 2.20750552e-02 1.54525386e-02
      8.83002207e-03 1.10375276e-02 1.98675506e-02 2.20750552e-02
      3.53200883e-02 2.42825616e-02 1.54525386e-02 2.42825616e-02
      3.09050772e-02 1.10375276e-02 2.42825616e-02 2.42825616e-02
      1.32450331e-02 2.86975726e-02 4.63576168e-02 2.20750552e-02
      2.20750552e-02 1.32450331e-02 4.41501103e-03 2.20750552e-02
      8.83002207e-03 1.98675506e-02 1.54525386e-02 1.98675506e-02
      1.98675506e-02 1.76600441e-02 1.32450331e-02 1.32450331e-02
      2.20750552e-02 3.31125818e-02 2.86975726e-02 8.83002207e-03 0.
      2.20750552e-02 2.42825616e-02 1.54525386e-02 1.98675506e-02
      3.97351012e-02 4.41501103e-03 3.09050772e-02 6.62251655e-03
      1.76600441e-02</_>
    <_>
      1.75824184e-02 4.39560460e-03 2.63736267e-02 2.85714287e-02
      2.19780230e-03 1.31868133e-02 8.79120920e-03 1.09890113e-02
      2.41758246e-02 1.97802205e-02 2.41758246e-02 1.31868133e-02
      2.63736267e-02 2.85714287e-02 5.27472533e-02 1.09890113e-02
      3.07692308e-02 1.53846154e-02 1.53846154e-02 2.19780225e-02
      1.75824184e-02 3.73626389e-02 1.75824184e-02 1.09890113e-02
      1.97802205e-02 1.31868133e-02 2.19780225e-02 4.61538471e-02
      1.75824184e-02 3.29670347e-02 1.31868133e-02 1.75824184e-02
      2.41758246e-02 1.75824184e-02 8.79120920e-03 2.19780230e-03
      1.75824184e-02 3.51648368e-02 8.79120920e-03 3.07692308e-02 0.
      3.73626389e-02 3.95604409e-02 2.19780230e-03 2.41758246e-02
      1.97802205e-02 1.09890113e-02 8.79120920e-03 3.51648368e-02
      1.53846154e-02</_>
    <_>
      2.23214296e-03 2.23214296e-03 8.92857183e-03 6.69642864e-03
      6.69642864e-03 4.01785709e-02 1.11607146e-02 2.23214296e-03
      1.78571437e-02 8.92857183e-03 2.45535709e-02 2.23214291e-02
      1.56250000e-02 1.33928573e-02 0. 2.23214291e-02 6.69642836e-02
      1.11607146e-02 2.23214291e-02 6.69642864e-03 0. 4.24107127e-02
      4.01785709e-02 3.57142873e-02 3.34821418e-02 2.45535709e-02
      8.92857183e-03 4.46428591e-03 1.11607146e-02 1.11607146e-02
      6.69642864e-03 3.57142873e-02 5.35714291e-02 3.57142873e-02
      2.45535709e-02 2.45535709e-02 3.12500000e-02 1.33928573e-02
      1.11607146e-02 2.45535709e-02 6.91964254e-02 1.11607146e-02
      6.69642864e-03 2.45535709e-02 1.78571437e-02 3.12500000e-02
      6.69642864e-03 2.45535709e-02 1.33928573e-02 8.92857183e-03</_>
    <_>
      2.27272734e-02 4.13223123e-03 2.27272734e-02 1.85950417e-02
      4.13223123e-03 3.09917349e-02 2.06611566e-02 2.68595032e-02
      1.23966942e-02 2.47933883e-02 2.27272734e-02 1.44628100e-02
      3.51239666e-02 3.71900834e-02 3.51239666e-02 1.23966942e-02
      2.06611566e-02 2.89256200e-02 1.65289249e-02 1.44628100e-02
      2.68595032e-02 2.68595032e-02 3.71900834e-02 1.23966942e-02
      2.89256200e-02 2.47933883e-02 2.47933883e-02 1.65289249e-02
      8.26446246e-03 1.03305783e-02 2.27272734e-02 1.65289249e-02
      8.26446246e-03 4.13223123e-03 2.68595032e-02 2.47933883e-02
      2.89256200e-02 3.71900834e-02 1.23966942e-02 1.65289249e-02
      1.03305783e-02 1.65289249e-02 2.47933883e-02 0. 1.23966942e-02
      2.27272734e-02 0. 3.09917349e-02 1.85950417e-02 2.27272734e-02</_>
    <_>
      6.38297852e-03 4.25531901e-03 6.38297852e-03 4.25531901e-03
      1.06382975e-02 6.80851042e-02 2.12765951e-03 8.51063803e-03
      4.25531901e-03 0. 1.06382975e-02 2.76595745e-02 1.70212761e-02
      8.51063803e-03 2.12765951e-03 8.51063803e-03 1.10638298e-01
      1.06382975e-02 4.25531901e-02 1.06382975e-02 1.70212761e-02
      1.91489365e-02 2.55319141e-02 3.19148935e-02 1.91489365e-02
      1.70212761e-02 6.38297852e-03 4.25531901e-03 6.38297852e-03
      1.27659570e-02 6.38297852e-03 2.97872350e-02 2.76595745e-02
      2.12765951e-02 3.61702144e-02 1.06382975e-02 4.89361696e-02
      2.12765951e-03 2.34042555e-02 2.12765951e-03 1.29787236e-01
      3.61702144e-02 1.06382975e-02 1.70212761e-02 1.70212761e-02
      1.91489365e-02 4.25531901e-03 1.70212761e-02 1.06382975e-02
      6.38297852e-03</_>
    <_>
      1.66666675e-02 1.25000002e-02 1.66666675e-02 3.54166664e-02
      4.16666688e-03 1.87500007e-02 3.12500000e-02 8.33333377e-03
      1.66666675e-02 2.50000004e-02 1.04166670e-02 1.45833334e-02
      1.45833334e-02 3.12500000e-02 2.08333340e-02 1.04166670e-02
      2.91666668e-02 1.04166670e-02 5.20833321e-02 1.04166670e-02
      6.25000009e-03 2.91666668e-02 4.16666679e-02 6.25000009e-03
      2.29166672e-02 3.33333351e-02 1.45833334e-02 2.50000004e-02
      1.25000002e-02 8.33333377e-03 1.66666675e-02 2.29166672e-02
      1.45833334e-02 2.08333340e-02 2.08333340e-02 1.04166670e-02
      5.62499985e-02 2.08333340e-02 2.08333340e-02 2.50000004e-02
      2.29166672e-02 1.66666675e-02 1.66666675e-02 4.16666688e-03
      1.66666675e-02 2.29166672e-02 1.66666675e-02 2.50000004e-02
      2.08333340e-02 1.87500007e-02</_>
    <_>
      2.32067518e-02 6.32911408e-03 1.47679327e-02 1.47679327e-02
      1.89873409e-02 2.32067518e-02 4.21940908e-03 1.47679327e-02
      4.21940908e-03 2.32067518e-02 1.89873409e-02 1.05485236e-02
      2.53164563e-02 2.74261609e-02 1.89873409e-02 1.05485236e-02
      5.27426153e-02 1.05485236e-02 2.74261609e-02 2.95358654e-02
      3.37552726e-02 1.68776363e-02 1.47679327e-02 1.47679327e-02
      4.64135036e-02 1.47679327e-02 6.32911408e-03 1.47679327e-02
      4.21940945e-02 8.43881816e-03 6.32911408e-03 1.89873409e-02
      8.43881816e-03 6.32911408e-03 1.47679327e-02 8.43881816e-03
